{
	"layersNodes": [784, 16, 16, 3],
	"weights": [{
		"rows": 16,
		"cols": 784,
		"data": [
			[-0.7332571276950461, 0.5624632840014918, -0.30816084395268106, -0.9531553736317466, -0.14140315298754214, -0.949093715645438, -0.05968473549391495, 0.6122757648387691, -0.8270362316371349, 0.46587929489446145, -0.9780221736791903, 0.5405131544614767, 0.23386438672213689, 0.7984121639058852, 0.10460866705871116, 0.6982211299717848, -0.8034602877869159, -0.8413436820492222, 0.9542105116614779, 0.08348545875414715, -0.5050417633364384, -0.9012265863650866, 0.33442583045779095, 0.8001466393527017, 0.49456809826148485, -0.9095610801938183, -0.2558939644258236, 0.31705474501462705, 0.8948292780055147, 0.8572782796386158, -0.8425874606888213, -0.48565608980728214, -0.8279830776570942, 0.25440620562190386, 0.3994724803686438, -0.018908878119367395, -0.040288912626107516, -0.09392363766552185, 0.9959047298520822, -0.11257063633132877, 0.3448542660023959, -0.7035909500172516, 0.23473509940747156, -0.7781821408588308, 0.9598953516186359, 0.33403649866084656, 0.7862598109239511, -0.5401295528329788, 0.6283140313674758, 0.6203816289537345, -0.522955862761739, 0.4970029185282212, -0.20539958759920118, -0.9741280438353579, 0.27515668213465183, -0.933509669306638, -0.5760940034222668, -0.55903457971776, -0.45488970358143366, -0.4684838710849686, 0.24044933825506343, -0.3905402233280709, -0.3871036193526487, 0.7879440416529094, 0.0845525501056976, -0.24252450705749, -0.6321327303003502, -0.6381981319972254, -0.8388862062055974, 0.39828574304518427, 0.7033792923159692, 0.39563045075368075, 0.6655167943696857, 0.48691957446553236, -0.35342547894747195, -0.01666883205618576, 0.014627340628827262, 0.896686667999198, 0.07400001008190407, 0.6438164639364901, -0.7801060297111102, -0.13619028285833643, 0.9462798942537289, 0.2332542038855041, -0.1622707694825558, -0.022617924975514292, 0.7246663075687411, 0.3987600098844608, 0.04035512553275756, -0.6697423655138401, 0.37786683500925766, 0.962095614594935, 0.22276457151770285, -0.5978692076939529, 0.0017495937071617166, -0.6664631685234735, -0.6209378260520604, -0.7637138682450191, -0.33273638292036184, -0.46612628063220507, 0.09200349042316965, 0.8827998245315747, 0.8452311135200012, 0.769634516701834, 0.4912888492307758, 1.1530551315459963, 0.20606132751273123, -0.5535455665577426, 0.9516116145299381, -0.20760069152790994, -0.49566701250497747, -0.18987148783724406, 0.6469821836214651, -0.9060681523709122, 0.08777054123801858, -0.04853850722902079, -0.1377497501713869, 0.2743226195155095, 0.8987733639551827, 0.3746775996992401, -1.047420932914712, -0.23193310842513098, 0.1766345369050926, 0.14980117586646371, -1.165991757809959, -1.9032637159196384, -0.8266500490884108, 0.9076926241858235, 0.9425575506562204, 0.25401795123455834, 1.6546112517852438, 0.9351435537474448, 0.3322836068665974, 0.013990086455470912, -0.24891474596245453, 0.3959592239687908, 0.9334878880702255, 0.025663387990612727, 0.176599833824404, 0.3297296338177497, -0.40016426113220094, -0.34589559837795614, 0.9692776234469251, 0.861146606918242, -0.3805727146229403, 0.37053252954766125, 0.43930968370102785, 0.25163987825687667, 1.0110365969519517, 0.7585064230225272, 0.5666062576578601, -0.9881139094940453, -0.49372680347440584, -0.9387464444287893, 0.21693631118557125, 0.03288837360018314, 0.1261572974806056, 0.21723275340679646, 0.4514821115577477, 1.4627977693017782, -0.1584983120746293, 0.23623668057704197, 0.23712192777615368, 0.6232180050875308, -0.6748939821854357, -0.5966788105435914, -0.6020281133944098, 0.7335554429046515, 0.6384027327984008, -0.7817182320747271, 0.6872893900515173, -0.403972497869804, -1.1765259659877736, -0.7335198970772033, -0.8055889051857651, 0.5375879948896585, 0.6087092001429097, 0.9283355709005928, 0.33152514898667584, -0.8208379174569227, 0.453171744373698, -1.2337054182185574, 0.5644752545966933, -0.5775949207296927, -0.2783819356714616, -0.42574589523808753, -0.49408552345777973, -0.22201703546371357, -0.09504322232854281, -0.762817284531743, 0.7998245351117774, 0.9717892578697113, 1.0770108594413528, -0.3440692267518753, -0.4551524267610133, -0.5122638653536179, -0.7307207193164285, 0.7753171913068089, 0.8200829576066889, -1.345028905177295, -0.252057022001256, 0.15500580634148262, -1.446522791047135, 0.2473640026280918, 0.40570490667490816, 0.7958824212703354, 0.8099795165380743, 1.7699624995380006, 0.042138970237526066, -0.2904118972819712, 1.0336059908842228, 0.27986803521114656, 0.45916306351928476, -1.7255783738554065, -1.4753425090015133, 0.520416737950033, -0.010458237608573628, 1.1902292669380228, 1.2894086716216002, 0.045178428490927125, 1.3502767846559454, -0.3890376475853673, -0.28238780848570916, -0.8004242759703136, -0.8999513868925062, 0.9105636990216166, -0.45262393009845514, -0.7293487484313734, -0.5592840203365299, -1.659374833897891, -0.4291620787859923, -0.6317763746373155, -0.4297120632177905, 0.14392040861342917, 0.2745492105907202, 0.5310678340127046, -0.12932155944575072, -0.8666687687293655, -0.024283163193331462, 0.6163238823662586, -0.0015983780224128042, -0.8662840916702254, 0.5791059989564646, -0.9964786240770428, 1.77054607931977, 0.4818096702812246, 0.982415365801783, 1.007838088556413, 1.724329058931655, 0.48196319761714573, 0.6335527795984441, -0.09439349671849331, 0.3670461445907178, -0.5588045348341617, 0.31102418238132457, -0.6362123174670555, -1.1179780542923885, -0.817655928405612, 0.004149353923883325, -0.7349349534138961, -0.09136756414355661, -0.5781035407096471, 0.6165174445481625, 1.7689056196365456, 1.7319546404302835, 0.5106615650370269, 1.223514612637876, 0.9808503929285532, 1.1021921901533298, 0.5081323549977813, -0.11448332949589314, -0.27565238550509846, 0.3873034262783957, 0.4643565538624357, 0.11518303148745886, -0.21189724554164444, 0.9409482957861925, 0.18150914586710726, -0.21530056027921515, 1.0006863658634737, -0.35989334346912694, 0.5763913169011712, 0.7429237827603417, 0.03965671226488894, 0.6266882435088762, -0.499171209671914, 0.1649005114123339, 0.9219421496416507, 0.0874011677599381, 0.33120256042439666, 1.5766127980633045, 2.6030409968781942, 0.22430066938372237, 1.128660851948183, 0.3868106958675822, 0.9280324216368903, 3.1792388728912018, 1.8592190982364398, 0.3155708845181369, 1.1535796403812277, -0.2572671046597873, -0.3709295457761887, 0.585581889781049, 1.5858561773686082, 1.9103474085993133, 2.3598628592154864, 0.18826676687752886, 0.22973310711085135, -0.6679069207715478, 0.5415745848081595, 0.2725229982248867, 0.3556119144476405, -0.6831222331760444, -0.8452353253448358, -0.8293942139731346, -0.08019466147404442, 0.8754877066087569, 0.7743091169064349, 3.489100845888936, 1.4841144506472321, 1.5416514140997892, 0.6081241293544672, 2.7207465727956444, 3.7896524855888494, 4.39173671309448, 3.733803504736229, 2.4348539833601497, 1.324618982502101, 1.4331576291684291, 2.0437779125883764, 2.1455083905561985, 0.2107920387954321, 1.062578639876712, 0.21489353552999998, -0.12142147811433131, 0.7152413253683756, 0.03863218904182819, -0.698597794482736, -0.0805097000404067, 0.8130960760530723, -0.4833872143938074, -0.4582552746352011, 0.4322545939983326, 1.0648719783983085, 0.6062896054705716, 1.3577792179225059, 1.8305292286148809, 0.47371529858506206, 0.9358101835605597, 2.2635678207669914, 1.4353120451422425, 1.4557717229329585, 3.01840321210165, 2.4755725734886456, 2.4044497106341876, 0.6311726102436074, 1.3723430524540157, 1.450747340999133, -0.16954704416638758, -0.44402042755326515, 0.2042636094786303, 0.33141888453051005, 0.10643292349288222, 0.8841206059539949, 0.9015423204898698, -0.3464647960778193, 0.8203693110287182, 0.8520755514316863, 0.8194126509164821, 0.1649985883575859, 0.06842034630850437, 1.137704472611963, -0.38897711178348154, 0.2991839863065414, 1.1875678621735637, 1.543137407519201, 1.8172587716266622, 1.5821777474466057, -0.2811795472522151, -1.22178938386221, 0.8475267558400491, 0.2462059901015496, 0.9653133222384873, 0.4072237193589282, -0.5931413566727594, -0.7241531568518373, 0.4108594950834273, -0.9264017699163396, 0.7882517425778993, -0.7197268703854113, -0.4397643104260606, 0.16441712312422974, -0.034841835698165055, 0.40341552856130347, -0.820442230605829, 0.6343330521631672, 0.29374059107453643, 0.012808415376420985, 0.5061718093265984, -0.980262789206586, 1.390409899854118, 0.6721963963015296, 1.6854590694987777, 0.9588344822112553, 0.7144095065003271, 0.12456256162412462, -0.4039576818813121, 0.024225899722696162, -0.16993784739640144, 0.44845020308235006, 0.7184021025989212, 0.7030672450680485, 0.728519609309693, -0.05075044556374972, 0.40872519844207655, 0.11408078302450637, -0.8357597909175489, 0.30587048038755227, 0.21619952899514813, -0.5180991330926471, 0.0007079146921048755, -0.8677962598468154, -0.035754381943904394, -0.29555407144316614, 1.221879874804541, 0.0432714693572419, 0.412196768792903, 0.17604308099134333, 0.040077030991521725, 1.2701249060984199, 0.019210871872034543, 1.4529828601192112, 0.20656414085904448, -1.1972544774227458, 0.15573321061151835, 0.6086886383489756, -1.0444407882668567, -0.6573794383739654, -0.22889926353062034, 0.6643089820946254, 0.838518189772579, 0.4868010144328265, 0.8403284212220697, -0.2804369669932206, 0.3354876522357042, -0.10431961904745346, 0.2951777555831761, -0.7620469398998418, 0.16999960229756717, -0.15624979279950635, -0.9391412622079418, -0.8586216112705007, 1.303230482104689, 0.8994052898025306, 1.143642947885666, -0.14906617988581872, 0.03739868360056525, -1.4186827803716562, -1.7142254723664123, -0.5734090925782103, -0.7194071983104842, -0.9058953029260073, 0.23118171900757575, -1.2347929565091986, -0.533321982426935, -0.8336536393077816, -0.7986138219272738, 1.284720259938647, 0.34233629708429003, 0.08665275959306878, 1.3563225218969897, 0.8863677744885173, -0.28641429442301397, 0.23518425103138463, -0.7805790590122492, -0.8870731520996863, -0.4075504816033977, 0.06875224049693607, -0.39916819046103647, -0.5669908625468636, 0.2963600514153192, 1.9599849230978736, 1.2300905245516043, 2.356655078081153, -0.2698049258817201, -0.42298796245939474, -1.7260343325220848, -0.8215482883619981, -1.3164246810296683, -1.3843399122866609, -0.2241757173780084, 0.8049683362796128, -1.503371473619264, -0.9756151477844457, 0.40327922254085086, 1.8902381576892222, 1.9609573221349323, 0.5220048397450845, 0.5658463137283767, -0.5898876284179123, 0.12899426031080366, -0.4712328687315973, -0.5937424895786454, 0.4568856543815555, 0.652108525385517, 0.7901997468213904, 0.7100227585628531, 0.6741012704349604, -0.1152533254477882, 0.09637801724233333, 1.6919930167785444, 2.2088167556026805, 2.269264620207165, -0.13542795481403117, 0.21548136067344095, 0.6890446385193729, 0.967727475758713, 1.6378007709595215, 0.23762875613539713, 0.25614111802384354, -1.0189542587131153, -0.15341982626869316, 0.4175449857224146, 1.7503131049250948, 0.8717004562238642, 1.2036626217306314, 0.3782492707837138, -0.9699147251776409, 0.13679980752994172, -0.07896778682762562, -0.882026266340379, 0.8504671831239915, 0.9396920690271382, -0.6663958582958478, -0.48742075439301874, 0.5567114280230213, 0.5616458363132713, 1.0662041806869949, 1.3844579079976713, 2.4230314727171542, 2.310847483324364, 1.4898860600755781, 1.8902739152081918, 1.346102151857047, 0.8116882774198851, -0.37434308301052477, 0.6829394337091943, -0.7976838884445504, -0.6768901692206825, 0.46671824411595497, 0.8362055542557016, 0.6169008318076422, 1.9996799510057723, -0.6641772677679422, -1.0519664873416743, -1.0881185571357852, -0.8906493233605288, -0.062123975569027164, -0.5923142227282194, -0.3954770611333504, 0.3908016125958582, 0.6663015281509659, 0.8238734119432768, 0.41478414473683817, 0.7673194224282605, -0.5161354172164899, 0.3622938594312564, 0.24576974670601504, 1.3277184874069132, 1.7514152438079265, 1.384096921057015, 1.9004969515551449, 0.5299698088488293, 1.358825290136159, -0.3222919672313497, 0.36226595775267584, 1.3325766756245994, 0.6893740211189494, 0.06132110293701423, 0.2256958311491988, -0.7039346235954758, -0.2183210879176232, -1.015142030816416, 0.0019605857803005307, 0.7645760032833779, 0.047670199785672454, -0.9655053924420276, 0.029661894807144856, -0.15845133553327173, -0.1727424845623503, 0.262521647149401, 0.3227603476855532, -0.8206383241473408, -0.354326901043137, 1.085251600446889, -0.7677999634451375, -0.0832326970503462, 1.6376932827938815, 1.9677015619342282, 2.409193359847745, 1.734810333100221, 0.6473696540477061, 1.0002460851583062, 0.4622376414670496, 0.327223120100115, 0.7859441735551028, 0.39249706572041676, -0.5592638488409087, 0.01886601829449023, -0.5437616940059152, -0.6925607854963356, -0.4403101476378953, 0.22147933230762687, 0.36041626391787496, 0.33222806185508647, 0.042062428136719454, 0.9947280441952868, 0.022623770710570756, -0.6448241165999061, -0.9273083262694364, 0.6343958229086688, 0.44565955784212063, -0.6589595670209561, -0.41869818972049233, -1.275201509456922, -0.006633931549875099, 1.048719898429038, 0.5834016854382019, -0.828472325151085, -0.7528901164614166, -0.11705514056316124, 0.4403541505349901, 0.7005336413710705, 1.510434254461089, 0.5543257073726549, -0.1072460832472129, -0.020971944068038574, -1.1284128806649292, -0.27964934670106417, 0.7423049141226579, 0.10395624136199028, 0.5651711324473451, 0.7771523324476315, 0.36848963051152506, 0.6938141776467055, 0.4617111207814797, -0.16016259038084624, -0.3817692017873157, 0.48288553926206507, -0.36936750744477653, -0.25691707444395484, 0.5064941247871545, -0.9484063763300193, 0.01203281039747479, -1.0859238899194632, -0.3548901495781313, -0.0018563326659609808, -0.8506914941405431, 0.490186777409985, -0.3476020717831405, 0.3155505280784402, 1.954849430191609, 0.48524411858717587, 0.42395506000258615, 0.7649330518484028, -0.12332728963413377, -0.7821988641517952, -0.1501892855062949, 0.7841081920698506, 0.6283319494079748, 0.28783936793129594, -0.6131376577781462, -0.2665050544891785, -0.21041487766144717, -0.15714184654343555, -0.4806724755337932, 0.29950327345528116, 0.9408394437981472, -0.6362774764044056, -0.775440023908593, -0.6250654816946773, 0.8534802879691383, 0.3584241452291689, -0.08354624703162994, 0.6244564254764825, 0.3997547674664099, 0.2107204160955959, 1.2032018758502603, 1.106713448935629, 0.9896120002243738, -0.2605041689756482, -0.16971988839323335, -0.5487448916150375, -0.579918435940242, -0.3024090078833626, 0.3696166359880873, 0.2167339129731033, 0.9201794086448329, 0.6156599475344599, -0.814166741408453, 0.5632522265527724, -0.9192214407690922, 0.8064658990640918, 0.024199494833923727, 0.5032864797540818, 0.8541209540149032, 0.980479565277432, -0.40542362266182325, 0.7948339797071645, -0.6878592209946026, 0.2341804390925235, -0.6106135446884885, -0.3394502512839234, 0.6919421844365437, 1.1249608880910213, 1.011706070014086, 1.3689715213651052, 0.4609917554260374, -0.7285226950035489, -0.4967802566521039, -0.5709808892266618, -0.6996922699325385, 0.08188574811066146, 0.43743374610622493, 0.022096613559494955, -0.7333362788667266, 0.7996121518717874, -0.6855244820639901, -0.4243110346968799, -0.7648378611432243, -0.2908146256255262, 0.1784894038274163, 0.6630065671749268, -0.07317848069969868, 0.13086635563852164, -0.9751295449523297, 0.5729637206641822, -0.2958385457621349, -0.660243465059118, -0.5159069031568361, -0.7332760230924336, 0.08517814035203419, 0.7436545835469008, 1.0638235969777974, 1.108381420199113, 0.5986307473773101, -0.3909941495036657, -0.48850958731330346, -0.21502268935770433, -0.6750291789644935, -0.596569495401691, 0.5510625458659307, -0.1575716447039106, 0.0015609687505730996, -0.8434202671735522, -0.020800976354895084, -0.4036292504109271, 0.9366816942591023, -0.8490246153533678, -0.5143974175505663, -0.02514235517030361, 0.21453973053649777, 0.25625473954523237, 0.6318001555198847, 0.7645648883748812, -0.8312573092013622, -0.9338047539152393, 0.6689931827848093, 0.1530402436622297, -0.24752517936397647, 0.43801433950798296, -0.40556130899040044, 0.8920781669792124, 0.8155349105150358, 0.9585320660764363, 0.7517037269627429, 0.39729587022299073, 0.6744047447556465, -0.2914740459792382, 0.3339596151978603, 0.567779593761577, 0.29312080851733713, -0.036696174748507726, 0.6609082318090427],
			[-0.6065319501492348, -0.2025412313273698, -0.8978947760773126, -0.7127193661608451, -0.3816248411797858, -0.42224594758369083, 0.29666987357073094, -0.24534903785913986, -0.12270219143088079, 0.361604152808233, -0.5574903724262734, 0.6848972451691862, 0.122233242421092, -0.45148107574615676, 0.13211020219046604, -0.7938874245276631, 0.41803055912660714, 0.07920221030133856, 0.7310771664587321, 0.45994375407428434, -0.43958589344734644, -0.7228164988408636, -0.3797449659116445, 0.03592012126697064, -0.29602943183881125, -0.33569775939021884, -0.03142012199525013, 0.06350055976295454, -0.04674684082079539, -0.19170866410939214, 0.19776785758721704, -0.6961405642696175, -0.9213894105228349, -0.9752375634842432, 0.5751292116231372, 0.12310327255760892, 0.8355103067062346, -0.4594183244690669, -0.26979054720588524, 0.7734008009082637, -0.902970456750728, -0.8688924532385385, -0.5512594946762311, -0.9435648902129362, 0.5452561419964933, -0.8080511865676793, 0.7301585547270298, -0.5104756399135426, 0.25106341018042944, 0.15406848229270054, -0.92302722274151, 0.856863610269154, 0.6187611029178126, 0.5207326116266131, 0.03996218045973121, 0.9452506893139274, 0.1408433764285557, -0.16358685311027488, -0.6654880458026344, 0.547675974451526, 0.37667044716994624, -0.045442569992579784, -0.8219623893318649, 0.5305511892910897, 0.6155773616002156, -0.511872824385238, -0.35436142781034624, -0.710810425026092, -0.07730532101273982, -1.535780690299989, -1.7676518269169668, -1.3643612849739475, -0.1702647032282344, -0.4750711087491741, 0.8412025738653351, 0.4921811768597845, -0.580593827512209, -0.46080901789130035, -0.6019468372333274, -0.7802223900658616, -0.9736033070652019, -0.5612456950876153, 0.10569613312155202, 0.9238162669788514, -0.7573524967601664, -0.2962842703431976, -0.7398017902660076, 0.16443855650715253, 0.7508409810191616, 0.5697106071834906, 0.5262578210571727, 0.7787425132866874, -0.8552713201199929, -0.9489808704458405, -0.3084126690665195, -2.013140784802993, -0.421066346520729, -2.538063096667101, -4.3215266499293215, -3.9935245390310756, -0.9885579614722804, -0.821014825470292, -0.30209255665787116, -0.178859953520084, 1.6867533735574616, 2.216214647061868, 0.47859769297533, 1.8634963403830056, -0.30823611161010755, 0.16625584076834257, -0.648549541897298, -0.9701817661087166, -0.6293945310739626, 0.17256611093634877, 0.0996571086841348, -0.9333666960659915, 0.5746606056941256, 0.6550760996061875, 0.689150096935228, -0.32200095654421157, -2.250931478240271, -2.8991555507003564, -2.99353223916348, -4.667293316351464, -3.2127098698720182, -3.7775023821542795, -3.008992887064287, -2.5912028232081132, -1.143262259667306, -1.3523954298399932, -1.3321138732362006, 0.5608267714142238, 1.334715316293407, 2.829247196955852, 3.470217535468473, 2.852859479257293, 0.7874707301865626, 0.0435826110122156, -0.6187000823173542, -0.515536732644842, -0.1999079091460625, -0.7790626844651141, 0.6591335967550791, -0.433564832363359, 0.3397423722604168, -0.98821609882605, -0.5044632770334639, -0.6210141015999634, -1.6918626744649274, -3.0358680378240046, -4.554863502626461, -3.238032018747468, -4.173462179397473, -5.186985283380134, -1.8231945266219929, 0.05820372691091802, -1.4137768916773679, -2.3076726124035347, -2.067560442589373, -1.2738634523085888, 1.8491228993957831, 1.6795863968633415, 2.553931459959644, 2.498487515524428, 2.5259837482354324, 0.06549311087366846, 0.42462520490996053, -0.2286793764960164, -0.03980000603147715, -0.8870165141702735, -0.08087087757482181, -0.5545812457982882, -2.0801646833464402, -1.048777585737424, -2.2577112631540524, -1.7337212502374197, -0.38096188592028, -2.651425602813976, -5.421644884957065, -7.262870650047256, -7.0770730890844655, -4.660545043379439, -2.3646552946873434, -2.742031087515813, -1.7629613627386893, 1.3358632423381571, 0.4348393204532984, 1.9083436736835013, 1.5869287872389153, 0.7938043495013605, 0.09598968502687899, 1.8638919389985558, 2.5926739888892967, 1.792033956206188, 1.0262905124750075, -0.594384853850257, -0.2335766224853697, 0.0913474217602035, -0.5227288699547101, -0.6170518800063503, -1.9777323913608635, -2.2669094100588274, -2.3534951467034984, -1.3465262850765591, -2.30312258845822, -1.8249836686636176, -6.109144811816256, -7.300931391517919, -4.952779909696193, -4.188723917667701, -2.941537804273933, -2.376364300054057, -1.2358311422850736, 0.5056222663785285, 0.9710311009931396, 1.3842875810252204, 1.018971358059857, 2.7557420546779094, 1.5979185256279158, 2.713609955282963, 1.8396926029600777, 0.8963324339851937, -0.6488692760957889, 0.533704331522497, 0.7595711091984452, -0.4635058897197547, 0.9398615001538775, -0.04703764946236237, -0.17097063892003217, -3.1235441811243017, -0.7120566408842377, -1.608460874813534, -3.9161272060408634, -2.784510116200505, -6.207886067248661, -7.437788499117187, -4.798923998214787, -3.507880557272717, -2.9756754040435665, 1.0560486191558631, -2.19560740328808, -4.440611991179331, -3.323578611559658, -0.5557398065260886, -0.6050381845504491, 0.2198092256815421, 0.07231677257871197, 1.3499362458991417, 3.3280234482314186, 2.0308652713037554, -0.04921522411116893, -0.35883471252028837, -0.06764576096837693, -0.036062393225750444, -0.061597340342981526, 0.5064640665857989, 0.9671258402953502, -1.5333521086529704, 0.8180015277345617, -1.27687765964705, -3.1041769568507833, -5.274382996661027, -3.903457674982507, -4.98445029938419, -2.430806518210071, -0.6170288306420282, 0.20212729184079298, 0.06863665463111641, -4.5299066203150264, -2.888658157792919, -3.876612748388269, -4.013649452236387, -2.6696017423946685, -1.62647230471704, -0.05031739364231249, 2.728587668723653, 3.822101478860777, 2.741223876305227, 0.43206473314510946, 0.4742707890191378, 0.4531382344640713, -0.4554089854001626, 0.18020653503692344, -0.944832452109316, 1.3736934103953737, 0.6208779995805075, 2.633722173712618, 0.09103880067058373, 0.28778235639440863, -0.7399129728244525, -1.3152789278467751, 0.2549765754599446, 2.689455090817646, 3.759285119206073, 5.11052830957031, -0.06871239465314376, -4.031742236077639, -6.741971850405376, -6.802982765263725, -3.2698829380600105, -1.8494274189798714, -1.8188388973440266, 1.5295624671247254, 4.537802984304485, 4.0049496950085155, 2.6107244530787064, 1.0465922526715898, 0.20743862031336888, -0.9890493682217101, 0.7717875182900484, 0.8941095041714915, -0.9029476334943988, -0.41266776960658497, 0.8399099238831862, 3.3254145194914098, 2.686232030792008, 2.7413842811284037, 1.3239306992783508, 1.4952357778173402, 5.743899167651737, 10.166447166364495, 12.793243724660794, 8.493388891828204, 1.141521531973753, -2.531216410676591, -4.35698928868167, -1.3947454742134102, -1.531161944159874, -1.5872366590445042, -0.37218286691003927, 4.19606565389841, 3.488374912973463, 3.763068466664077, 0.8131572258177084, 0.8661602806719774, -0.715903326121324, -0.3202915924938523, 0.33754584186990444, -0.9797494424130511, 0.5133881633437579, 1.441702695079115, 2.7534435160428674, 5.148568100668945, 4.305408872262862, 3.2588242138959806, 1.7652665795616034, 5.401313266241509, 8.30328433834127, 10.534982728614546, 12.802317479917335, 8.495135152428167, 0.561467608894909, -2.737119990342274, -1.7572659410630815, -2.6826066895547793, -1.6748278449374006, -0.360994113404974, 0.0018448875401393468, 0.15412009944908478, 1.5701745287515563, 1.0907740213903627, -0.9526577386160967, 0.6111189959625533, -0.674613057700862, -0.5503302046293848, -0.9112064577926682, 0.3438478995248082, 0.455948894538289, 0.539752837811099, 0.916387179537602, 4.471328865767326, 3.371361098358875, 1.090790685626184, 2.492317224720865, 3.2936900722331544, 4.771350233497489, 9.09452259520111, 7.88967839067251, 3.0880340307399763, -1.0306662000622453, -2.612681262671397, -2.8168030446179646, 0.053723178995446756, 0.8489198273005006, -1.2152103162869854, -1.518612383157418, -2.6026507339960787, -1.809662569958103, -0.5486553000055502, -0.047524585541607704, 0.46864448210636517, 0.4687864893875158, -0.7907030769015188, -0.8522015317150067, 0.9905211840825912, -0.5681993999071699, 0.3922743732312995, 0.2536475738150704, -0.20547180903509082, 1.0366553907054499, 0.40883326653224816, 1.7144290945542535, 3.5810719617519835, 2.7234409840489877, 3.9006630896967645, 0.8743698599010308, -1.3226386692573715, -3.3211539248537156, -3.5748383810917805, -0.910500122900619, -1.6414879534589368, -1.0312412121017167, -0.5737806830042816, -0.41807556707524807, -1.811515769381298, -2.1167580797941397, -2.2585064622523663, 0.4946732163747191, 0.03216418835459765, -0.26598215105629114, -0.891675151929062, 0.12969965053898758, 0.5171742839401695, -0.7525253082517019, 0.08406933550710471, -1.7452824670313536, -2.5411621815597543, -2.8431588776071073, -2.6187546659475758, 1.7003604815725875, 1.7906006027452754, -0.4062062807658399, -2.14183051870357, -2.156233531162534, -4.486500852597953, -6.114911083981257, -0.6332062653637048, 0.19309379265364202, 1.0242551483982907, -0.8932147199806382, 1.4422042320544821, 0.37943761559660133, -0.09654248499536458, -2.065835542334448, -3.8527296965861644, -1.9890580140951835, -0.27927842718205964, -0.14032242605423026, 0.15496632185551062, 0.518677436254892, -0.47787021175686556, -0.2868596035842392, -1.4112103077316112, -2.524667243929614, -4.091219689496087, -3.6416735209536233, -2.4474924455475935, -1.419979599560308, -3.0840090103918687, -1.5738769567660853, -1.292709144098468, -1.066158012693485, -4.009681522360555, -1.0625368754181956, 4.797283321973241, 3.1684733826161513, 0.2672147572801488, 0.18504792871641362, 0.40888178741105247, -0.6211273910061798, -1.1660308070310665, -2.18828737775815, -2.2833354309022535, -2.556417300462191, -0.06336494521839628, -0.20026281829679754, -0.28491268799491953, 0.37688293513458104, -0.23927304005946942, -0.8619291113103708, -2.5460537308555597, -1.787209454008997, -3.533313999482054, -4.279706871814314, -2.840036443270777, -3.0781952411550786, -5.989449443994474, -2.4800836028588216, -1.918458133748109, -3.1958200992390053, -2.112747629513297, 1.106592994039, 4.479879105782534, 4.660627012517561, 1.057788289270576, 0.6596777898068605, -0.6035038891166559, -0.9028984065665598, -2.434824425161284, -1.9863455555874463, -1.8135393601160488, -0.9288024486868862, -0.5188643754945036, -0.02085006717032884, 0.01796802083453164, 0.20605959748739355, 0.9550980338427432, 0.33808322283712267, -2.174722739625655, -0.9802183884230591, -0.4949772350979668, -4.469183391140132, -3.1833569309623404, -5.739773910631747, -4.385326779010583, -4.322965353563322, -4.678373436629041, -0.04304613611939853, 2.6932747167885647, 0.8099241656059537, 4.0179844049543965, 0.7499769796209499, -1.3724941326309275, -1.8203791620878422, -2.04541804250112, -2.132975581773538, -2.598563879239531, -2.4583988071542024, -1.7048478597178378, -1.837627801428906, -0.817210076048424, -0.04780014637766575, -0.3317413346406828, -0.13259655949321747, -0.6404266333216805, 0.5774355815279418, -2.4032199054590286, 0.24360732221947473, -0.6760564295029673, -3.6053777057513225, -4.789681360327676, -4.846258785742908, -6.226099089210013, -5.546201176462319, -5.118773432489055, -1.3588538246767596, -0.46339660970070284, 1.2940816461471663, 0.5498228532342566, 0.30145000859607246, -3.4734266533300824, -3.73407951253947, -4.0384527150768, -3.5149539415516458, -3.40354791584885, -3.0457134015156684, -1.6524888579740038, -1.5823395206347337, 0.21933159587518142, -0.035782238317530135, -0.37855479736254694, -0.3451820338286007, 0.9297087414303203, -0.5838065839384027, -1.1563842508274222, -2.248120805796044, -0.38505086346797057, -1.3183012221998398, -2.9323937667982793, -5.213684090150017, -6.211397388430754, -2.808630819475631, -0.0648474462797721, -0.7782237343946341, -1.1493519851926732, -1.0207657064160829, -1.931089953607894, -3.483006604264243, -6.493728565776504, -6.9899752179369425, -6.602595665146067, -5.852352350314223, -5.312892461597052, -2.8523514137626003, -3.6454568767698285, -0.7163691538696219, -1.5690101297639578, -0.5476801697105699, -0.833988139020744, 0.5420641691605455, -0.8897109533418042, 0.19792112531858827, -1.0930804675008061, -4.326230028548365, -0.4727926753991098, -0.13311281010819148, -1.0495936511824993, -4.396109912737901, -3.3307867320528324, 0.06498821839558813, -0.6568973337789473, -0.31954412363060275, 0.9134384048337968, -0.5609227537382914, -5.311398708113657, -5.274573940103264, -5.475358678312133, -6.456741684779346, -3.330046763403289, -3.7449920787295015, -3.0802302730357187, -2.7829778079016694, -2.0462868650407326, -0.040649331999208026, 0.4701722945404834, 0.5853004063997735, 0.379833382885876, -0.6731125529542901, 0.25625534481232376, 0.7719408194705353, -1.5403300075052813, -3.939296929326189, -2.789165979313538, -2.0585137714571133, -1.9033851704607199, -2.082881740205694, 2.949282319258995, 2.516348700900094, 1.6376968213204828, -0.2559188027187252, -1.8470457105852325, -1.300154802829945, -0.17673515512135426, 0.8765261604873938, -2.2935153357729106, -3.694076381908727, -1.7994314948378183, -3.0330245166443475, -2.4105795947186293, -0.5421791590712881, -1.175014500257568, 0.7935822246447816, 0.5729956145147462, 0.07045117893110708, -0.2670898161697215, 0.8767624245270063, 0.6314772105381646, 0.8096236937347925, -0.22165608126328848, -0.8708826488198994, -3.100582286651128, -2.0498336504010677, 0.06911599898451976, -0.3316500565014698, 1.8280057028701724, 2.244867911070629, 1.587957466879308, 0.6100003582935618, 1.6963094999675257, 1.625801682077711, -1.7319282626917374, -2.4840962727075397, -1.8444964918148166, -1.959219637144243, -1.7477010692586692, -2.062545714183507, -0.7492862234745574, 0.4156156217415837, -0.10560513792208863, 0.41761683871431643, -0.3066224430944627, 0.2973702614907632, -0.8175988402265246, -0.5051990616005515, 0.3401645454864557, 0.4772893841069106, 0.9888043852922986, 0.4493919326722832, -0.6863219504881874, -1.1347895312647147, 0.9410854556465088, 1.4809299433686778, 0.38782564144474563, 0.45168587922264963, -0.9251759285965634, 1.566144068157898, 0.9680466381843408, -1.288310953104977, -0.7807058898486737, -1.3727817847164132, -0.4048900690666631, 0.7911425380243129, -0.7138947249391456, 0.003318766408599444, -0.7734246905851209, 0.15156631571459023, 0.44638108623585515, -1.1294156337711987, 0.7663623939780376, -0.22997317188396282, 0.28977087663749357, -0.3871506359766741, -0.29634483021883407, -0.5065834119130562, 0.9542624048060384, -0.7444628222572063, 0.3748681181431597, -0.8623770717200334, -0.45941949282218925, 1.1443924529132055, -0.44462080100970985, 0.3561982799879831, -0.7084528114927142, -0.2386697901245511, -1.5662023412063197, -1.162582811680202, -0.10912299086820393, -0.6661748955343517, -0.37767367697316195, 1.7521247403591962, -0.7003182340802304, 0.8506227538286185, 0.1714030634753282, 0.6611219331999757, -0.14059072834314087, -0.015105349480551056, -0.4633403752135548, -0.8595552040705456, 0.2137896549759799, 0.15103890928035257, -0.17749610421195028, -0.4197431352537464, -0.2640947129689155, -0.10075631045902655, 0.10768017315602094, -0.7756727885639736, 1.0839008732199658, 0.21007367294717888, 0.5258377181189139, -0.5926667157575543, 0.29342857853836, -0.6533656456487895, 1.045029015519899, -0.73253884034904, -0.8774058291807735, 0.23370027349109448, -0.8414290278620531, -0.5116822372568384, -0.3737492151267332, 0.45626457288527283, 0.0016743858366624368, -0.03595473611781589, -0.4475992341522983, 0.13128320604017096, -0.6406200002213498, -0.0337017128395547, 0.43694302649995276, 0.7211072594484218, -0.056685429887748384, -0.920154647160484, -0.27374501670780127, -0.8267897955143875, -0.6992484511536161, 0.5029516072987916, -0.5315871556115082, 0.9328336836302, -0.014475886786193132, -0.9236698413973662, -0.4800842771060946, 0.9666715328217186, -0.0019758282850244058, -0.9583719956540628, -0.8320764456078518, -0.221563946887398, 0.41810244633627436, 0.9121809330739565, 0.3283016488560482, 0.28428577877922345, 0.8600389663605337, 0.08800810687996385, 0.6784765008432552, -0.16690582854263258, -0.3187251283712702, -0.5103995769824881],
			[0.16291117413960743, -0.17099362571827648, 0.6681371138088155, -0.9741185337436589, -0.9536788880645322, -0.9253206111503745, -0.8430039654678336, -0.3055819818188694, 0.8664979059959075, -0.3447785621182331, -0.3858718986855667, -0.07365788906607973, -0.49169696019882503, 0.4343601466224092, 0.18468722809712323, 0.21444814958454872, -0.478333877322493, 0.7325010341156877, 0.3441656111198945, -0.7427924677921829, 0.6954912367214727, -0.8082430647811032, 0.017095152051906037, 0.11962248939684716, 0.5598804455577469, -0.27086232072307137, -0.5524879361397899, -0.4207789467194347, -0.31973477781436177, -0.1366435403925199, 0.26601495930031094, -0.906055509547397, -0.5218616544973917, -0.8294000282044682, -0.3279420147866592, 0.5774992126200191, 0.46934153130267037, 0.4032918937543298, 0.3660059087900086, 0.5142208121495804, 0.09723592124064613, -0.22374564783314246, -0.5375063426960334, -0.005252416356219843, -0.2964806781552143, -0.3810219925872228, 0.008322054013686114, 0.9817629340072807, 0.6252280890339028, -0.29539526289779605, 0.6727493667709439, 0.6405344883153927, 0.76765630174171, -0.8591274901136385, 0.43085891699787915, 0.2707812856200813, -0.6571416273497155, 0.6860838817515624, 0.07270275567674389, 0.15357203522527563, -0.4162739959359598, -0.2291675302485484, 0.11342985121606602, 0.38934954948981915, -0.7154746490136062, -1.029031072537759, -0.6932066835485361, 0.5078556307756984, -0.48577809467634303, 0.3527411491702418, -0.24478382900076331, -0.3156108395525388, -0.11093591810728863, 0.8445015477579007, 0.2164862726929181, 0.5053783271253505, -0.07102517946865289, 1.0123475416482863, 0.10041715251414228, -0.3213271246346012, 0.45821780983135185, 0.5968085252348927, 0.7458132893813816, 0.5287591933139817, 0.12399815609392828, -0.9453779956794652, -0.25995615906338904, -0.18106669058433097, -0.997112006160629, 0.12321378864864518, -0.46833229944020643, -0.07645954328833547, -0.39178963262027144, -0.899692688779591, -0.13397633163042505, -1.4297656355535133, -0.9071274919038427, 1.0799570581034128, 0.8409984098475518, -0.3062119285268561, -0.8665404768887304, 1.6786149969915638, 1.3944646066753255, -0.030442051649067284, 1.5140376551482284, 0.9044806640839946, -0.013366176999290331, -0.4051555459592234, -0.6665629861959899, 0.013859998607766377, -0.7976983187919738, 0.9907361113664974, 0.5376656389809176, -0.9577121143960339, 0.6556942633691882, 0.9442105998858602, 0.9902495159278979, -1.220219944200712, -1.1583648935158226, -1.1387802830965257, -1.0938473034913356, -0.36059572054869293, -1.0674767669383256, -1.8490012543332643, -3.857053995021998, -4.804595304355879, -1.8570898342893174, 2.308904285937648, 1.5344503579461728, -1.9036693887975602, -4.085394214231558, -2.19563043997396, -1.7075255621214191, -1.8636398859103058, -1.5123326945251307, 0.8496411809752552, -0.27229329790274026, -0.40647228478601727, -0.7522389907208252, 0.08119606764787912, 0.25508742457244304, -0.11577502272558293, -0.66444316636691, 0.6802330351714135, 0.26975454987560665, 0.26885455602038816, -0.7927842646681118, -0.01933286067180394, -1.715706722042873, -1.6627676825448559, -2.4617405198185947, -0.24363340826444366, 0.7545536411551731, 0.38801875652211737, 1.2422451704692514, 2.4565740022005556, 1.5728860786468446, 5.328322134272319, 1.0189337930532973, -1.8016609556152043, -0.8976332580937326, -2.471702061642659, -0.4042064989661663, 2.365444200056801, 1.0300902875251032, 0.2750088585897814, 0.11193578768638167, 0.6204298026723548, 0.03658982685043144, 0.21190281284885248, -0.040270735687923706, -0.5918485463397457, 0.22327442079173254, -0.9115049040744132, -0.6330296820602401, 0.21438424012503834, -0.3681335430142651, -0.9894532192718947, 1.9067374832357489, 3.7248772080067116, 4.277384835100545, 5.99500902274392, 3.5660284547485115, 2.237380207073122, 1.5597116409444989, 4.484339821527178, 1.895355111880589, 0.7704403187442854, -1.3259947878079443, -1.7340760203769665, 0.8845218215539737, 3.1978787860969207, 1.4298899793985167, -0.16070587635144215, 0.21483702713691422, 0.5172618377456625, -0.6562388860144464, 0.01410566195996843, 0.7070949455164252, -0.13632522612035108, -1.1120991803441331, -0.03603513799078752, 0.16925928170294227, 1.432496999321688, 1.2556981755483005, 2.3140073795256315, 5.7555604545779335, 7.65132221647021, 7.185427981346377, 4.319227911559812, 2.7918555678297, 1.5818354409338444, 2.1614022030665723, 0.7983499106123649, 4.342484025579948, 4.104527226019219, 3.2340584994298993, 2.351357510349709, 3.743013874068595, 3.323126594260256, 2.2301037427180415, 1.1813113277775933, -0.04740778327566367, 0.4932124806572108, 0.03792382726076138, -0.8978126507586714, 0.3239462248294939, 0.7861064761743347, -0.7086264746236686, -0.7754539471607205, 1.4022243968281056, 2.477498041757461, 3.3557566142118715, 4.931479417467201, 7.317164534821286, 6.70529230997074, 3.197269990109261, 3.382955189177206, 0.8741949141031149, 2.2312442647659068, 3.127679186896981, 2.2570882431967862, 2.5411514123363177, 0.04815998070469071, 2.0261716905641975, 2.668396183852926, 1.3482081239071193, 3.60398352248872, 2.529387641064403, 0.33713502036774257, 0.0124661335104162, 0.29437708486662095, 0.9743698052833967, -0.29142664460177636, -0.32702707568006417, -0.354336087610975, 0.44496783021633673, 0.862505202753505, 1.2335613860715389, 2.3002899447205203, 3.930344804201691, 4.902993377392807, 2.0967637305215696, 0.20573986357624277, 1.7119268832729417, 3.295233401915351, 4.320846284173657, 1.8167515245126826, -0.6957609467781769, -1.0279265328490264, 1.0396079608056288, -0.05034359734754067, 0.352303676022102, 0.08615888095167006, 0.951364809454849, 1.7560694047005962, 1.2883805253400387, -1.526687059666752, 0.45914817834419547, -0.5301172509367493, 0.1388840941453635, -0.003307145958290292, -0.4569989283634031, -0.3748388678339082, -0.14918453011344332, 1.0906093366271552, -0.4705015354041661, 1.5727829384417962, 3.1190984554620513, 5.0405943127886506, 1.6059091352207386, -3.414153628843765, -0.03611161570455294, 3.6128363290872696, 1.9464667213708544, -1.2218455539432769, -1.9436778048215735, -3.321526097903662, 0.4639382896489661, 1.4149853152677998, 1.1954330983511472, -1.6404432452581412, 1.478217512855241, 3.683383755719823, -0.17373244426576906, -1.5751439646189327, -0.2279668489079764, -0.6983975574154536, -0.34205032557111714, -0.4659616435206795, 0.20513165944849332, -0.35230718899427754, 0.9532936451936351, 1.3716734516398603, 2.1666120627212417, 2.5947617948549797, 5.199013183243719, 7.063059261148777, 2.822541586676791, 1.1649894159848677, 2.7489484504450616, 1.6321890899203282, 0.03076934179803679, 1.1922122722522472, 0.1095207855524366, -1.2631501589212362, -2.1787153461824733, -3.1051524913426696, -0.3922277453051332, 0.7063209507330814, 2.5298844370958244, 2.6178365106438943, -0.6096179275551958, -0.8913392212022422, -0.7513716923505217, 0.2560994161587941, 0.1819892256331168, 0.05186335852873292, -0.9348423241207264, -0.26419517719175256, 1.2996803402031964, 2.7698927017520645, 1.6945631065895372, 4.803419908911627, 4.528729374818653, 6.78261216710977, 1.7319118122831603, 0.010301260149992638, 0.382652251603204, -2.6603409693670286, 0.650202606882567, 2.9472735743864917, 5.484130436955845, 2.109379034650164, 0.7544549568799646, 0.8383587191549289, 0.7349303068081177, 1.1588495801106764, 2.913318430373367, 3.075814567932464, 1.9921487853464586, -1.3121222997448683, -0.3451686032303934, 0.11817585215042369, -0.7969033709255733, 0.4394813018146779, -0.3113349747248636, 0.5720783731895145, 0.655286754300921, 2.2951896313841083, 1.9308765505912107, 0.5413113973548566, 3.9912625681813796, 4.800857804556705, -0.846018424942447, -0.9723600473846615, 0.900447606906577, -1.1176199962672597, 4.6864274532894825, 7.6701778110718735, 4.016034325570335, -0.2840526094045922, 0.30399571877625303, 3.066798587453285, 2.4919647837414938, 3.1081471293329925, 2.3843822115017987, 1.4759197816684013, -1.6672066206548142, -1.3953043929479925, -0.33215574260448755, -0.4969969387437789, 0.874810110850093, -0.18000560454757997, -0.16849805658149464, -0.2362056723380656, -0.5808283909741204, 1.418549576928478, -1.3324066411591133, -1.8127158119500606, -0.2152864893029927, 0.8966463756102863, 0.2687246384782013, 3.7867235084265247, 0.040621030272442286, 2.6947621045823507, 5.251373805931299, 4.300883395626109, -0.34574864388494886, -3.4149266867663655, -0.552632869858812, -1.3252330370584442, -1.7624194429103526, 0.14610405955331274, 0.01814697516202748, -0.6225450619357735, -2.3590210431203067, -0.41944281055905436, 0.5622223997676182, 0.6246623541197935, 0.5986749528362703, 0.35552756574162325, 0.4662899703351191, -0.8446487798177882, -1.138652985284871, -2.8786558547631618, -4.072507026660648, -2.662867309369598, -1.2627012123305903, -0.7672789196469575, 0.2710014741758278, 0.44447859666674183, 2.6266672729451095, 5.32032799969921, 1.7604911631792746, -0.2868386340846268, -0.8444786512803086, -3.8051637289242333, -2.201072483115589, -3.1273187261024673, -4.854381725229568, -2.445895248761618, -1.7721344631679805, -1.9460810161288444, -2.828696660717142, -0.5023609766332718, -0.9486572309483885, -0.41517587530867306, 0.2482037376518922, 0.40629374526358, -0.9861489762417208, -0.7393237554114388, -3.1261246346585323, -4.472670648627004, -3.383575653420956, -3.1735263212954936, -4.232797026392992, -2.1437342380785056, -2.559192696386993, -2.0124388805637583, 1.5576361985781886, 4.647419884723499, 0.3538520109510373, -0.9451335666516331, -1.6381148004417516, -6.965678958170077, -4.928481268702152, -5.057347655010398, -5.860059894199815, -7.549863517926062, -3.1807161501630663, -3.918891267881856, -4.274167535614112, -2.4675848306620978, -1.879200440167068, 0.7780707066467248, 0.03757963414271792, -0.06740734746284094, 0.22319289354771013, -1.1691869536154975, -5.077567140031799, -4.144690939799156, -4.806666960223463, -5.529597145128325, -4.399721233644956, -3.1338282770158665, -5.7638642385404, -1.702839267156874, 1.8036901288444822, 1.4097996511834754, -3.945691234423329, -5.817381155659032, -7.662655371338841, -10.008081495596068, -9.196535997004892, -4.167085600328947, -2.2705693712879054, -5.353344371617616, -3.4762906219115512, -2.463062373808101, -1.0212317772842558, -2.3512641393744937, -0.7670734826882044, 0.04548884308165822, 0.9742853666143603, 0.26558300322848405, -0.9554371781009207, -1.8582339996132584, -5.842482348425165, -5.5926751574447175, -5.888069678166619, -5.660523307599111, -2.7410966774777323, -2.5677345010260346, -4.729540028315379, -1.3882899023422737, 3.3341575915037067, -0.6368217303935665, -6.351965657974119, -8.271660031690725, -11.791309416195055, -12.406582076180387, -9.453464765402652, -7.593035794217434, -1.8547932970510068, -1.5885514953669868, -1.9156911422049494, -1.9277998659905402, -1.7417751228413652, -0.8877436746764901, 0.26767965857258497, 0.28092752498873763, -0.9649158406837146, -0.38925768587578835, -0.060975295865155314, 0.2869273418776294, -6.1270941568439605, -6.495981506394533, -5.8432220966514565, -4.53889834752966, -1.5242435439639301, 0.28937921576054565, -3.203827662308646, -2.8296513575523017, -1.3895171295631552, -7.804446287814557, -8.23614740712144, -7.538218228741757, -9.304928893714013, -10.161437916466634, -10.785524732719336, -5.206540734427816, -2.3958278383744926, -2.876902987482772, -1.1742590749738613, -0.8580600854095496, -1.4714203702301867, -1.615902118856321, 0.7357415225742803, -0.26348827957938936, 0.17434434853246294, -0.9290314044578254, 0.820632462565575, -0.6063997993241287, -3.4887993784813576, -3.666137681420296, -2.7603180025112466, 0.3453799210520665, 0.48597191934465905, 0.6713401265283947, -0.6873356812104926, -0.04476287865545219, -1.4335778686683298, 1.0067150457197451, -2.096472396832418, -0.3603870842077682, -3.000914963445916, -3.1975113095175685, -5.589391561213797, -4.703497728663877, -2.2068516527740796, -2.8855168407687937, 1.2767547174770435, 0.4761752709831706, -2.2256620505120117, -1.0179866019514785, 0.870065175202704, -0.041445184225761156, 0.4685671887677372, -0.8188459185496836, 0.3282034257569383, -1.8902016191477948, -2.144922272542595, -1.3848011118888524, 1.2277531113900564, 2.4190053372054248, 4.941335937340128, 2.651034403662466, 2.0537668568791796, 2.739636808188641, 2.7058776216779163, 4.6195382434250165, 10.404791849345003, 8.917081376803663, 2.06914919882257, -2.228805192531366, -3.062203183582509, -5.729843302019519, -1.8927056105242341, 0.49000994589672886, 2.399837301964935, 1.0004814262531367, -1.0682837019847073, -0.7631514148442978, 0.6432167151099726, -0.400853730427146, 0.008969567284950575, -0.4246491154762144, 0.23643843002111753, -0.8186803188066242, -2.759788076524251, -2.2288366816184557, 0.7117144409601261, 2.009014041768864, 2.286802216057953, 2.6823958603584277, 3.4873327266436163, 1.8086238817882494, 4.546195976917494, 9.765970609965049, 10.227192626183623, 10.022243079177516, 7.542036362988485, 4.783450492484479, 1.5641711307578774, 1.2639648699923627, 5.010915406962464, 3.647243073406869, 2.176911430062466, 1.6988228632023243, -0.6291824852262098, 1.1919871427681308, -0.33557952322535434, 0.3419542364779904, -0.09348999454079898, 0.8956056064306313, 0.9586112978448987, -1.2847834435576906, -2.4158245145265838, -2.7787726413578753, -1.0393272585987583, 0.6160757051636437, 3.721591312201719, 4.4402488541953495, 4.978339820811182, 1.4561475073002292, 4.5638036053681175, 7.402365947599987, 5.200563333474216, 8.187032903685969, 7.203548415958099, 6.542232982445184, 5.977040373722034, 8.228425448349864, 6.524204766515435, 5.599404640688115, 1.68198593438915, 0.5185489187701608, 0.1061993792693789, -0.7820694069768885, 0.5717033188686989, 0.8048432410892294, 0.1808740434206606, 0.33523699156206277, 0.2446564758395664, 0.6495992141461342, -0.4650169442715036, 0.8660473590112989, 1.6075987898048265, 3.072875579092956, 5.058569517592264, 3.7392738664998895, 3.893000269900766, 2.742984464703835, 2.641709313365953, 2.624777824029601, 3.3070180505833218, 4.148876036934305, 3.416416940408295, 4.236659999758401, 4.191236545414299, 4.851374626077595, 3.4949274582612957, 1.688434663015416, 0.24218011336578626, 0.40102968360280267, -1.0935123060495127, -1.1043450385208333, -1.0238714047319337, -0.054020313791654395, 0.5490881698069483, 0.587367166255246, -0.9855842471652765, 0.4705685291423801, 0.49145889565543105, 0.7972198202804687, 0.06073687389290864, 0.7426127513710941, -0.4283268215827727, 0.6102642450378488, 0.9858697421819117, -0.13416652758047135, -1.2296534863366329, -1.2217553481477357, -0.9604709971739456, -0.6822015933421081, -0.621548186244667, -1.0397853496768907, -0.6591560308106703, -0.6615763403174046, 0.23051232325313378, 0.5674779943708319, -0.4454220465103862, -0.9809181548463055, -0.6042028177971391, -0.6478358706608696, 0.6200494875827866, -0.01175770669921583, -0.4440334070075793, -0.05067008656293481, -0.6409754572711375, 0.6343995381723118, 0.11092292046765229, -0.9810911739003112, 0.5703216608621969, -0.35186730811463557, -0.5261513709197411, -0.12261179988083332, -0.696250248312925, 0.4088696228391063, -1.1896721364796938, 0.2528979530001186, 0.39693566774312355, -0.5738940981953109, -0.7030180130314125, 0.36110222172547085, -0.9666629549772683, 0.27226619602147734, 0.08598931655300993, 0.4328730443357883, 0.3998426360407707, -0.9722670414930576, -0.15447119248189978, -0.12498924162630498, 0.7105531159667469, -0.5099412013902365, -0.047771068597147526, 0.31448720311758604, -0.5805022976644549, 0.9965473138639442, -0.4537457080185563, 0.584128961554883, 0.06225753653911115, -0.4263441522449192, 0.4732667077402031, 0.9605720183388105, 0.07229776599395744, 0.26392646365774136, -0.13246577278897384, 0.22820718955527292, -0.5059314248960258, -0.03827599336427312, -0.8583444747873652, 0.38684841313821305, -0.8888893894710788, 0.7828091043617391, 0.8426425473882491, -0.5590538460808849, 0.6191408903512401, 0.5656223887009091, -0.5297443316411607, -0.9155540479391133, -0.4818371639795189, 0.7106472425309449],
			[0.13394642761047804, -0.8042310896652745, 0.5383942842072744, -0.25655236908612533, 0.23095127091346734, 0.2491475020177183, 0.7127430078725139, 0.8651477493192772, 0.3631054423609492, -0.06650776440949002, 0.12134250119145529, -0.5773058394620278, 0.11714743514200548, -0.07882138010802432, 0.5851298723822226, -0.2114122808687728, 0.6577738468926695, 0.9675408109093198, -0.7235178830656297, 0.373733154897141, -0.7865608708087897, 0.3716719402770776, -0.4513795497100448, -0.8791854615649464, -0.6628805674501126, -0.6895766221731896, -0.5832476077869595, -0.7458812721117822, 0.5608207751870582, 0.1200781837715752, -0.5007304032389195, -0.0423858667275856, -0.951213535599758, -0.8186530064707886, -0.8735620964732105, -0.3746412852494218, -0.29190260393432094, 0.7828351017164669, -0.5434147002633449, 0.5157861384969057, 0.874805003786977, -0.1388980565985142, -0.9198863106128057, 0.7434869842898689, -0.94418267432695, -0.3201510150957156, 0.4419014809973442, -0.20321856816248474, 0.771189510687436, -0.29908874724948076, 0.9234739068964868, -0.5051601968382333, 0.8726501826382855, 0.4638041068990324, 0.82531159864828, 0.7815379416257358, 0.9693329201318064, -0.9812795869108224, -0.7404492205860533, -0.7601024527921778, -0.4601055434054766, 0.1053468797603587, -0.09320839046017693, -0.19733265713584522, -0.24509611807004414, 0.12303476794025035, 0.2872627912149497, -0.8617179678052409, 0.6249546993228154, -0.6916452104320618, 0.05034027494219409, -0.9170104681827983, 0.8644595501943437, 0.24008034148352905, 0.181702412764872, 0.3148453565701179, 0.12924279442920558, 0.3120351384693169, 0.21672310364039307, 0.9264340775770995, 0.451212405600678, -0.27099018546363346, -0.8724733130769655, 0.27560611314346195, -0.9020207527827311, 0.6527558530226223, -0.5458916121663008, -0.14704310496160725, 0.44743813508631314, -0.6307939024349568, -0.7574618956392313, -0.773281903578547, 0.7263520146352893, -0.7651067242870572, 0.6087137169004939, -0.6194027444534213, 0.9117105733790416, -0.855446667288013, 0.026809619295749758, -0.18312586966258396, 0.2505228017686433, 0.6753917595345703, -0.8903880393107346, 0.48124773249510555, -0.11743660005400702, 0.23790231982335713, -0.5922829098481516, 1.222754633407979, 1.3429692439471492, 0.573332223252351, 0.6329475773590933, 0.6196591172351562, -0.0912646259896559, -0.761359537449303, 0.14594551564303035, 0.42020349934622453, 0.611331554339342, -0.3506423230641768, -0.8728206372330936, 1.1550273597576226, -0.29188339520693923, 0.1671893600254287, 2.2938614613580004, 0.40543822375648314, -2.273438078088414, -3.698250726320294, -2.7170239629743023, -1.8614944308627497, -1.7064687499726654, -1.6450696955794732, -3.186929565296111, -3.553475473694159, -0.880072770887172, 1.7485617100213076, 2.583956991286182, 2.6278847693498864, 0.27693271382769225, -0.4347745113036519, 0.6730932401433253, 0.3895070501364628, -0.5140072460481289, -0.6577156445665007, 0.8729883108227415, 0.44214574149750296, -0.7661573820137944, -0.5594856517392065, -0.5101035946878091, 2.101809304090229, 1.724358208367966, 2.376237442647705, 2.5079694908657846, -0.5967133844815469, 1.1466579572560527, -0.7819180316438556, -1.545854400894453, -4.354550720204502, -3.680703075288832, -4.138543860289213, -3.5197939168715764, -2.119873806571619, -1.2044158598265982, 0.8422884402460336, 3.0490073652456844, 2.9111300107322933, 1.8578241569191243, 1.0963150661278749, -0.5940227221835244, 0.44030013086454084, 0.054342046467942495, 0.7862751133970969, 0.45415489485492705, 0.3794594330781913, -0.7431353201938999, -0.6861205890253173, 1.4787621633775796, 1.4244208671227208, 2.6027176061477086, 0.27639794302778087, -1.530765534112278, -2.673898678983589, -0.6753417777555428, 0.1733567597181267, 1.2591183519243336, 0.3896190064505003, 1.0074373333040465, 0.7185115677409725, 0.9179366870694761, 0.5277548384848838, 0.8820635609378437, 0.48727389382263686, 2.653814668729813, 2.3159611176516166, 1.370131743478023, 0.7176148658651705, -0.3013834907550243, -0.39603981490085155, -0.26250687382602456, -0.7348010033486649, -0.15866434032804622, -0.7590111934101262, 0.46252735822665086, -0.9787310874454286, -0.1572828514210297, 0.2853208919036738, 1.9658559014190464, -1.5207118853816033, -2.0240078626921925, -0.315292537871736, -1.496093455246142, -0.617360223489773, 3.6303610771546926, 2.0577978686269582, -1.472102324969859, -0.634307172029325, 0.7133796533440396, -0.6986116895134772, 1.05676967320548, 0.0161081645616841, 2.2902438018060276, 5.567486084879906, 4.135657290735587, 0.6095825446084848, 0.9640192972046991, 1.0089964954833677, -0.7357148400689049, -0.5220550896340956, 0.6867030419030299, -0.7061535986452543, -0.7511656367844749, -0.5324095063776438, 0.2560934251020906, -0.26252223934778246, -1.539143697965077, -2.977766690553974, -6.004745453435719, -1.602413088522738, -2.1801066302617613, -0.045517765716002204, 4.121836113815367, 2.09719719623645, 0.800669657500868, 0.7599904641626584, -2.2260476840324817, -2.9171313609135927, 0.7735884547004466, 0.9504229870009687, 0.4239951760938001, 5.3638576775180375, 6.105225458718699, 3.0945283488799267, 1.0878565912664846, -0.47734050066287836, -0.3606061123167472, 0.6392888426919194, -0.6569757056639354, 0.6681311001514, -1.4485519752147777, -1.7955362083249808, -0.1728283312018596, -0.7323213361409552, -3.725224172126181, -3.8141060817521404, -4.30822785715831, -1.7032935176101789, 2.094206813294653, 4.058774061786004, 5.6676180491639085, 2.073050608959845, -3.7841276212335653, -3.383128804241287, -3.236780164540685, -3.044875983628334, -2.2510035008720917, -2.8749984828502577, -1.34011912732901, 2.7334343606779647, 2.829928355109661, 3.0081160289027906, -0.25651012242449667, -0.5132576823277121, -0.4224530856492854, -0.5832278034218015, 0.2179950489989221, 0.5603017884025003, -1.7352034374756633, -3.69391612157467, 0.8773253461327373, -2.379749102995575, -1.2149465588462065, -2.329106340379592, -3.6963849078636377, 1.8204807790457314, 7.6212732282124085, 6.531624433743412, 4.720207573005992, -0.6502581626611736, -8.098919669662724, -5.313649078979087, -2.931486389527643, -4.150078137341481, -2.8015673466481688, -3.7869217057038638, -2.4001981407778397, 0.136378144218284, 2.279187992580386, 0.40928632982229063, -0.44990491096229795, -0.6078152676967378, -0.6459564716624717, 0.4215690288041354, -0.2437667917373787, 0.08171907157973106, -1.0347148205624541, -1.6332874117765672, 0.3145190033942806, -1.7163220673193764, -2.910985056587386, -2.727758262574242, 0.3566726614010589, 5.175794274510071, 7.3868229593239345, 5.255410683605085, 0.06654002519347366, -3.995969611011106, -6.058911399934325, -3.4795744567544378, -3.4705844433583724, -7.931341426943068, -8.615871151730625, -7.707710872750686, -5.251104419448198, -3.4883720850026094, 0.10854261523257526, 0.7947083649594492, 1.1442371079419513, -0.1734040478455762, 0.190775418444582, 0.9286713668353226, -0.5975348081331351, -0.66679318865385, -0.8285191421794218, -0.31829380583524525, 0.257482872324835, -2.1466335522734026, -2.397679449202263, -1.117348946679877, 3.150734060416018, 7.065285298647614, 4.632373382883265, 2.259553811408534, -2.4449434196352766, -6.486605603325099, -8.91860006400395, -5.135749445582457, -6.912896185327346, -7.226527248522034, -8.057243756020393, -9.305539043773859, -5.972420899370286, -3.5176541227867695, -1.792466921414994, -0.23431042715990008, 0.11677619539791587, 0.5905637631464423, -0.992679058723942, -0.11886197670421117, 0.9003887477275065, -0.38936537308902003, 0.007624236506352345, -0.4619165938427905, -0.7555702686689904, -0.3849537679169273, 1.8229337955755256, 3.0699099272925325, 3.494957935146224, 0.4328597665425128, -0.5154295020989531, -1.883444086316893, -6.883844605679495, -9.629762003361975, -8.242855379250862, -8.08594189896251, -6.0403187914198435, -6.964004156481004, -6.696121394497214, -4.064500237464562, -1.5825351203782425, 0.0035168540345594493, -0.8568946870569994, -0.8040139780195346, 0.0829085664890564, 0.4446632546394942, -0.1609268928652595, -0.4329904069812618, -0.553522323305065, -0.4359616308754595, -0.37879677180090876, -2.034780692004699, -2.5735727078894453, 0.093539763117205, 7.0074482970816385, 5.880075188200849, 2.4912490238125113, -3.449390591139226, -7.343447304445126, -5.651206629796984, -5.718826267201361, -6.58544830365228, -5.301059853412478, -8.648645384388097, -6.6316974765837475, -4.467661442641712, -3.6669598667322547, -0.4103590551301717, 1.7818188687253376, 2.953541090098105, 1.0309377857076305, -0.25051111184649333, -0.7540798527062804, 0.5820967700156071, 0.595618747495809, 0.2100132966829631, -0.8742117399721394, -0.37707980550898046, -1.071512416559029, -1.2137199315718348, -0.864000902636425, 0.7794683948852781, 2.100350326602797, 1.989565930805273, 1.4293565341223744, -3.998510296771376, -5.439527400325966, -4.660167709340301, -6.3183097439593165, -6.065392652316022, -6.298360538210905, -4.611859381115605, 0.35808406524007697, 2.432301410164095, -0.7414311244568728, -0.38260298214489025, 1.7729714477264529, 2.5212707095825, 1.8451590450056643, 0.13968200047637913, 0.5595038484449039, -0.16401053906548593, 0.6012760322645887, -0.7091637815350267, 0.616738266530818, -0.16903982656810784, -1.77147978271762, -1.2229610250992522, -1.5458439123720316, -1.8006806142240999, -3.195549022710195, -4.081891646754314, -3.3350591594427224, -4.036735458039326, -3.297886228995299, -6.095013251407544, -4.0733886646723425, -0.06331461145448458, -4.219637164951846, -1.2667515784320045, 2.615876064459409, 4.200662384408483, 1.9534125605113062, -0.527254871790877, -0.46200702878258737, 1.7972463473312832, 3.7402365285418138, 0.0028855104409193436, 0.06414797354671675, 0.3555274806826345, 0.6385123819566956, -0.45687122490659515, 0.3086975587813502, -0.3101955529812151, -0.7824131290120548, -0.03344290587960452, -0.5369963918718368, -2.6544889596254673, -3.6726715536977728, -5.29471922998273, -5.977923270035019, -7.922552210896898, -8.548117462375664, -4.663177267174197, -0.7360125490123689, 3.372160227431935, 1.4199021186324015, 1.6965051636493327, 2.86535468403438, 0.8523073647331068, 2.4467099216863573, 1.2834704513875987, 0.6218262521216273, 2.467261914584575, 3.655615710902129, 1.4342287858130855, 0.913674926552546, 0.27190802808624986, -0.1455242286916798, -0.05487401079032628, 0.809715696749186, 0.5617412556459626, 1.8215030162811372, 1.2493161216606081, 0.32625061614814566, -0.747107372988507, -1.8322000327347179, -4.312529056448686, -8.140715899351743, -10.955401721201381, -9.270024877934855, -2.9305810798320366, 1.4728181129286633, 2.3605471949727383, 3.2751538513273943, 3.46392711650536, 0.9164310374816494, -0.43118341021163215, -0.12238965775168985, 0.8232621821708188, 0.6444366426532794, 3.3837708266336817, 3.698185409788621, 0.9026911613080651, 0.5269266892100974, 0.19107429884614674, 0.4725412866496219, -0.9061546160508356, -0.44843042524611804, 0.7624962901655143, 1.5809345431847435, 1.096499861214876, 0.8798639192348674, -0.12519181847502878, 0.7656290074915303, -3.7308584232694, -4.540948168166393, -3.0358565653591576, -4.674672549197296, -2.0445365219346683, 2.3682257715719697, 0.2849190453964853, 2.31407851351507, 2.078703653286894, -1.9164484627135845, -2.2072406172360597, -0.44862180535125007, -0.19643732868116842, -1.1172680840371554, 1.94835354023853, 3.5089177875339, 0.4719039825715056, -0.8908446407363918, 0.7101222195492691, 0.5174050341410519, -0.9507507969026557, 0.95988828395259, 0.5770598203798306, -0.020753178793623622, 2.1621768845514215, 0.13369649356420316, 2.450642597430991, 0.12694717523732524, 1.3295388619342279, 2.58621467256396, 0.3105227678685761, -0.059257160379077196, 4.341150010196303, 4.0679025944044795, -0.2957572397961677, 4.357019858925388, 1.4698112458505348, -1.1072424351042987, -1.6308193288080506, -0.9272126352171262, -1.7398012272288939, -0.38941128123245855, 1.3471164674632874, 3.509138864131953, 1.6313312287190298, -0.42201042951660656, -0.2252132429981473, -0.29862774854569984, 0.9371119762867288, 0.9585776299753369, 1.2579756125411574, -0.4212365482106342, 0.7261330620684219, 1.0476453615328454, -0.03036065317392582, 0.5590625488400346, 3.9093648817324356, 4.762098594152942, 0.6748790088680529, -0.09471129418204051, 0.09991965460637388, 2.484359512245067, 2.412580580473505, 2.8607362368112956, -0.06630940709876651, -2.950859666867377, -4.116581782555945, -0.7828934751269366, 1.2698315272051501, 1.8384137344281777, 3.2189929800759063, 2.834433195920496, 1.5316684933961393, -0.4939182426657612, -0.07324719948538005, 0.3814475402266, 0.42988620818667256, -0.8862811951526571, 0.2868490126170573, 0.007207121803621021, -1.3291198807595144, -0.484035041370712, -0.4075517343806706, -1.009378333620781, 1.9295432662228507, 2.3511669855764836, 1.4116516034626334, -1.5453313679737808, 0.5766932950589979, 1.1496549163991987, -0.0289934118731971, 0.6159259989753089, -0.17790566791292817, -2.7589297606274483, -1.9200555810631186, 2.585233743013965, 3.008524961449047, 2.6561335757060154, 2.3513432911805396, 0.4281121472508444, 0.13395745005980977, 1.27352746130323, 0.1394145820212067, -0.5221841189689957, 0.4793751404403115, 0.998587838199281, 0.049690837293164467, 0.593970994546702, -0.7580155251375142, 0.825848584946502, 1.2349540560423782, 0.6418439095359619, 0.5751263723066115, 3.66268779856061, 5.330310110458543, 3.6475622610900453, -1.9785132356192252, 0.23429498092137113, -2.4576170908662296, -2.837707167801916, -3.815880553761608, -3.322482071290617, -1.9512630025170905, 2.545621133986662, 2.193890011470751, 0.6556984783838102, 1.3209839251962663, 0.6386449350690444, 1.832590726025348, 0.3845208895782015, -0.2581626977514566, -0.3038650461749226, -0.20393696237053005, -0.21879783365183236, -0.9671804922753064, 0.4353208592545683, -0.7283403376049831, 0.2928249872792657, 0.951953807936055, 3.2204645212639296, 3.11140544093005, 0.6627396224404096, 1.3243526308678275, 2.3904105992271703, -0.3571301788841698, -1.87609823546825, -2.496091062689958, -3.15014294751629, -0.8717086585490073, -1.1084863847330637, -1.0788402934008265, 0.7381402778229232, 0.21264902009812, 0.1277895340935578, 0.716467706182346, 0.28849838450129217, 0.5227309946927814, -0.04697923312907286, -0.3804072057845205, 0.3606208791654817, -0.9382972954638626, 0.03818039333510015, -0.7135452392610346, -0.20822409418330337, 0.5046155276819322, 0.19124708002712443, 0.1382071036973628, -0.03755454603323643, 0.4659806216842884, 0.7498290790794053, 0.9182941918763183, 2.0414566128681653, 1.0327532839105533, -1.4923730047338297, -0.9860688775207886, 1.1874777327070418, 1.0349659842260548, 1.119528148172342, -0.5820659053929731, 0.9989400502348896, 0.7340665678788, 0.7642299651316399, 1.350302371366579, 0.5621403739093864, -0.9741191212125428, 0.37184920871846183, 0.6177805399466676, -0.622300549555689, 0.4420040322909706, 0.5983188789034686, -0.5852734436490339, -0.2091282338542162, -0.8354875397631472, 0.5066074068356194, -0.29231352114474524, -0.7866874588302556, 0.5690735622265675, 0.29563383949730354, 1.1918792489810628, 0.9220529625684776, 1.031617383861226, 0.7347382137062238, -0.4886968027038182, 0.301363160097926, -0.19859380308445276, 0.8725751289426475, -0.5508707010193357, -0.5340503704720776, 0.20743719376091485, -0.47385212973234936, 0.22784264360051454, -0.28316032360713006, -0.7417538390481702, 0.2802135581783616, 0.4387538982315857, 0.18096841580306533, 0.5379016211702079, -0.2291798131987921, 0.21678691897328273, -0.9396939289946533, 0.3152421008495012, 0.21611528497391141, -0.4866727718440811, 0.08201225137627244, -0.20961912080925282, 0.5047026045310062, -0.7166011424671336, 0.7465500086513689, -0.8656896632242245, 0.2759774747469854, 0.26316292659002105, 0.395872593318769, -0.800332536418479, 0.9024902215527559, -0.400979840521404, -0.9943905476250592, 0.37512206667690506, -0.11680203515866427, 0.7510447811110144, 0.5262683205731915, -0.6689538870656482, 0.19369398224070045, -0.1435163326520108],
			[-0.9444666035106755, -0.43507858835216595, -0.48340557767716064, 0.36695662574843135, 0.9517488677127677, -0.584754852532853, -0.5523555374524074, -0.6690163256461781, -0.018018142668197346, -0.004680118950216805, -0.3601774394536883, 0.7455115187328296, -0.04742027129677462, 0.19601780137425573, 0.6939888523699795, -0.11836738781569922, -0.2834341640489142, -0.6656973346425712, -0.6327461316828944, -0.9263603569515015, -0.34865797572971546, -0.6430112202514087, -0.5783416525583234, -0.5083429453380561, -0.45653621989814397, -0.1297688296866779, 0.3546811412875406, 0.5417001315636583, -0.14699387073362224, 0.28987718875496027, -0.7816880161254076, 0.2484498332723395, -0.7372127420974186, -0.29957845082023526, -0.9530392903594644, -0.8605478093523958, 0.9519471056310668, 0.3667780354417985, -0.8106688415375927, 0.950278615248287, 0.661759180792188, 0.2570106286623975, 0.18107229260080474, -0.716067170692676, -0.20088502704552638, 0.1435604331802663, -0.5538678614833211, -0.67343628168438, -0.48919169446096555, -0.05032633140169551, -0.7031185338968156, -0.4064355367070065, 0.06484826542615929, 0.36853967290230205, 0.04248443438175764, -0.19084517862177064, -0.6749337208676831, 0.9651288292401348, -0.6828684857856584, 0.25115739109995117, -0.2595549016676162, 0.1968611253355309, 0.00889673944049766, -0.2920125853854524, 0.8154951098740626, 0.5980961324877321, -0.6565646861169979, 0.499514690371881, 0.5995343127773669, 0.6913284170774219, -0.02957496108319475, 0.4593224548734816, -0.14992542179047022, 0.5371803537351851, -0.41504678265199524, 0.5384291043503641, 0.10388987866200207, -0.567245411753699, 0.02720451083372465, 0.3495957441070195, 0.5275207889679703, 0.30922721847134577, 0.2649306708173036, 0.831768971847263, 0.4238865355712895, -0.74901259309634, -0.8702903807063482, 0.2937280136500309, 0.5976425348434231, -0.32222142444328805, 0.45590519158923143, -0.5202873459332626, 0.618267444326514, 1.9897921610921827, 2.833379735110968, 1.0202993249507377, 0.7014022359694388, 0.2802284666126038, 2.867618908135901, 2.8392579107588993, 1.7379952564995436, 2.9226497848801594, 1.805291174703553, 1.7875233381648803, -0.0550960752690631, -0.8119701490873321, -0.8857786133979406, -0.031074288674385307, -0.6494181284601832, -0.23495026650215292, 0.11723973638167388, -0.347994150353403, -0.089240155197849, 0.7660660202720107, -0.8481736885045111, -0.3326291106532794, -0.5784373941203192, -0.1442650342861698, 0.8891421692876431, 0.4245966060703974, -0.3686236675991365, 0.8864180080665968, 1.7963467490518472, 1.5571481115654648, 0.6166127167858216, 0.8243444481125715, 2.6228523260480836, 1.683913077385838, 2.8087840754071425, 3.4184662209898926, 3.8431260773254383, 3.6619198201432623, 3.729043084617149, 2.84184754201564, -0.1873045498294947, -1.1387678103345396, -1.1506369981546578, 0.23207515550548094, 0.9863711262456125, 0.6481081234560125, -0.5918435449496875, -0.7943697177288045, -0.2862843348683674, 0.028462523126954253, 0.8505885357591129, -0.5122902589499966, 0.8996422881760437, 0.75530126660387, 1.0190283378686982, 0.3685307312696628, 1.3483235406667764, 0.9415758199716306, 1.9888668781517558, 2.905528281416491, 3.785941181468108, 5.33552315947356, 3.8180908333274433, 4.951176232282628, 7.534652709245609, 5.306711763708203, 4.018329051116263, 1.1780490526144902, -1.520225120573037, -2.6411490785299856, -0.7360693990692275, 0.5122323190392074, 0.058645685731617395, 0.6787646382211747, -0.6882556784780847, -0.3379419690813523, 0.0633717106690106, 0.8769512538659496, 1.3782228924379472, 0.14922399673363937, 0.5704134466800973, 0.534464433745753, 1.97574835084935, 0.4006464386296941, -0.07148922095869757, -1.15418893788569, -2.8003821303749405, 0.41524291314569606, 2.7092232924217963, 3.9917687170342457, 5.736722413026186, 7.8455562406288655, 7.903168693031155, 5.558403907989836, 0.7831661654948056, 1.5241165258865388, -0.6717807158603194, -0.9436998182857981, -2.27481362795641, -2.0187635097044216, -0.2754114207683052, 0.9276258355313893, -0.16203425093165036, 0.9017373042416228, -0.5390085968672576, 0.16475861517797766, 0.5152888378954301, 0.7082254352329634, 0.8017662577168829, 0.9409423834594247, 1.803928268385881, 1.85974130780055, 0.4849312609726602, -0.9730348626916403, -2.319004944077982, -1.2811345368066294, 0.7609761108396518, 4.311276361853254, 1.5894565414293291, 1.5668914310432176, 3.0700851414661705, 3.930732988270801, -0.6852588927982767, -0.5208508886990223, -1.7321102477347379, -4.939001335612921, -5.215782672949153, -2.624348540288505, -0.8861936740987523, 0.7879855872323749, 0.035387333968857515, 0.5294958561802335, -0.47127778485928384, 0.04864269363686438, 0.08637566173308182, 1.0634585296862513, 1.4150117193090157, 0.534427112852133, 2.2436441200290775, 2.2778466124959276, 4.593832720444105, 0.934239724202668, 0.0581484827517304, 2.108598138206739, 1.44280061537867, -0.6920183466563898, -4.253046931279005, -4.81527116125252, -4.4067287584185975, -5.133782825265173, -5.312889811752525, -4.833797782214861, -5.249837625959099, -5.04364377350879, -7.684368019248989, -5.18614392912063, -0.6322178168327031, 0.2371804401897808, -0.6937750165744365, 0.4184062992822777, 0.5039963368308181, -0.7980931216777993, 0.5193042022905712, 2.2009558089105403, 1.5569795317719946, -0.022483844080471247, 3.2756278309111804, 2.677852545005946, 3.0539109075517055, -0.6293091623645233, -0.12645278793897555, 0.5531733391927498, -2.882138981571797, -2.798546430524108, -5.622732573813505, -8.267059408633529, -9.298104336398762, -7.659979388998904, -6.446698175579153, -5.748368501971929, -3.582168164285372, -2.458890858420656, -4.061701417707392, -3.037469024092959, -0.5219090383639245, 0.29489571623582034, 0.7324451854567853, 0.5148745864304982, 0.30763202990833255, -0.7053545464325569, -0.30825032838594923, 2.1286166560191666, 0.86073805901719, -0.3361911994220675, 2.512301794279701, 3.1896326007158375, -1.2692029391247057, -1.4087735384566065, 0.18583598911592777, -3.2744268876263005, -2.2996035622721482, -3.0900233070860526, -2.6971743389841496, -0.9369758126223084, -2.284408632473643, -3.282280762960076, -6.991777898599177, -6.07447333737714, -1.4094110669327362, -2.220508978952298, -5.430374066652216, -3.351075728039069, -1.7895765802521217, 0.4390766889132496, -0.31064090019205537, 0.9401087819577794, -0.21059399341710927, -0.2973839071397238, -0.5170492775818484, 1.5963832493301635, 1.5390410102503782, 2.5588683081100134, 1.4857813165605829, 3.212325284691724, -1.07335226429333, 0.01163990113020536, -0.5867140142179281, -2.156172363275629, 2.8677745279057314, 2.7297870921854495, 4.297862854430923, 3.0181111256512234, 4.0330474396671585, 5.2129904840246075, 3.4681795432440485, 0.3896081696055631, 0.6668558017498961, 0.3108513647701731, -1.1733865648011201, -1.405023485087416, -0.9462799943477692, -0.14074251805295734, -0.3438211784826546, -0.8488225514443628, -0.40765546685109744, 0.18009458926092087, 0.30353803737853924, 1.9910351906863588, -0.2524742926957666, -0.34348262123590495, -0.6341691010805637, 0.3420770621729973, -1.9989969360150213, 0.9822933945515843, -1.5418484138917163, -1.789023762237232, 2.701625201105359, 5.16682823167666, 6.47075647140508, 8.55477787142291, 10.411174359261357, 9.55376813554505, 7.534274424741635, 6.0686945474293275, 5.826194489669015, 3.078585769710153, 1.8523535296057623, -1.4314539838088292, -0.9472919041839591, 0.9364456733492921, -0.30096471165838024, -0.20554213684200606, -0.3656217027380769, -0.034445569119178975, 0.2561479929281264, 0.02941562714768065, -1.1559134250044183, -3.300488666454319, 0.0770461885447459, 0.27458408859486383, -2.5840067344320157, -1.3651814585532343, 0.5779532081247084, 3.19385289287996, 2.3503290001017016, 3.768541449760881, 5.787093675162435, 8.289550216704153, 9.055784762122698, 10.19499911851759, 8.28442336677351, 7.9277390994521175, 4.233869012461548, 3.4800944673905105, -0.9284506656601887, 0.36681172759371355, -0.3472472177961128, -0.8966197733043525, 0.13277983600283225, 0.6110182574107648, 0.6498149746888937, 0.6970673271580955, 1.4201891221200535, -0.47530267765214135, -0.43454561237191425, -1.3488037869828693, -2.460048444508336, -1.3019339510418129, -3.2897015495719737, -0.5150319634552036, 2.541642325649424, 3.0577683444992303, 2.0522827657099776, 2.343874811202629, 0.5621096371833054, -1.1021355523986618, 2.0287902794707895, 7.1220776189675075, 6.1870880361790705, 5.166707967017889, 4.008930062820337, 2.742224656580819, 0.8137452806975142, -0.13946166527994297, -0.7714974346842038, 0.03849046899838282, 0.05879350249447647, 0.028807760087222967, -0.27920247107384116, 0.3418917975859563, 0.21285842514824607, 2.168849343960419, 0.6390469562417085, -1.2385790149450302, -2.7019594930742694, -1.7948695298921975, -1.7903378898999487, 0.14026595358421592, -1.150819461858066, 0.9742083378625114, 3.3355169960615516, 3.908120327553288, 1.775678197767988, -3.0082461399027984, -5.0920813480849265, 2.9590361737336406, 4.7195314490297235, 3.9417138468670507, 3.187654971099693, 1.333374142795064, 1.5548604035237912, 0.5314524543924657, -0.2679062024457745, 1.2164359826145739, -0.6717348492614508, 0.6625185159653544, 0.7299536033909164, -0.8473002476428575, -0.894457337558063, -0.7936130530018545, -2.217440756859246, -3.3336437178465843, 1.1086754735306485, 2.9134523929956635, 4.268788439389804, 1.7019065566918088, 2.4658255130302287, 3.143256295375841, 3.492401081859995, 3.5903699014392667, 2.3872695831028987, -2.6170579342310103, -3.504568756392938, 0.4882001900695424, 4.038330011833107, 4.6705413411179055, 3.612854060329753, 3.241977783947629, 1.2243495234958528, 1.2035810474897333, 0.9306105784654906, 0.04844566719303805, 0.10137046578310782, -0.8715827194947501, 0.38851680176897857, 0.602182014234162, 1.0560168581282872, -0.7992573891746052, -3.735307523099203, -3.1227267118773145, 2.6365793477576864, 4.477826662215438, 3.2598437009058516, 0.7557535679532794, 4.2739115563835846, 2.8105058750022245, 1.431219102004146, -0.7269235420390961, -0.8501258917764464, -2.3421516075683484, -0.6503165285092137, 0.35062961734706466, 1.7094897314339808, 3.37155662231913, 2.365047532706181, 1.9355561706221858, 1.3640839461648047, 1.60986189573298, -0.33332445777306463, -0.4662020767016276, 0.8417670193779516, 0.8312311571560325, -0.6095109213127645, 1.0151039029322622, 1.9552192040023582, 0.09297985322097628, -2.897988531800703, -2.917142410628441, 0.46348807861800445, 3.624802304134353, 4.480493026951994, 1.9902254479726824, 0.6365985345313289, 2.866722296038459, 0.5929552906910163, -2.9614989316562412, -2.2668113936239567, -1.796380395981386, -0.11014002411606012, 0.24126517301012262, 1.762573033807529, 3.4296704037410617, 1.2143390384507808, 2.9094070198731354, 1.9850058936013295, 1.4262072882664916, 1.1987579346185169, -0.016322814906427688, 0.5919001788421197, -0.1412315665674284, -0.6676866747743971, 1.1355653816455902, 1.2597620016893785, 1.0883246459087905, 0.12357848994330842, 0.7160238789438834, 2.535210321306577, 1.8050294023827982, 3.2639096561139396, 1.994792341786887, 1.2935330108786203, 0.15327387686061733, 0.3961066990245152, -0.978435215201859, -1.2564198956837282, -2.371858243899508, -1.3894421311987553, -0.1518555608068696, 0.6525411963746397, 4.358176487775331, 2.838786400834367, 2.350685514397643, 1.1736303243803272, 0.9153065522629955, -0.21756344720535406, -0.6483093495325852, -0.4363135590525773, -0.5246421452735839, -0.5599863201781781, 1.004377923841083, 0.2387376004512346, 0.6577941849368578, -0.46898151841164454, 0.9834355888216003, 1.8719726455947812, 2.4652707442760775, 4.193269231981669, 2.6381977329402155, 0.3055513061461063, -3.6581052210340146, -1.5474768492588238, 0.5890052871432202, -2.250473037324848, -3.4872534072065395, -1.9516959957020517, -0.07691696884471186, 0.5750436224422782, 4.870958025005244, 4.577624828113182, 1.2212105191083023, 2.4585923194578476, 0.5235578337735695, -0.46535728375058116, 0.6527611671752711, -0.36834795147761756, 0.9254351753825395, -0.24113314783720766, 0.8124220971066001, 0.4472906874960089, 1.1487652362816796, 1.616076342936141, 0.2555242428759056, -0.7663584368786035, 1.5072971908345087, 3.7421334203990044, 3.975816069289056, -1.5476963545052325, -2.4817262374190303, 2.330289593387792, 2.6868035805825357, 1.718672454516519, 0.7743345966134324, 0.8785427962845777, 0.1896874817583681, 1.7831773372875264, 2.882190504483336, 3.977567787547949, 1.9891168618946893, 1.0364824594039153, 0.9387820869774538, -0.8560071927882562, 0.2760369529457529, 0.6999946792044893, 0.30439921862469266, -0.37161569980992754, 0.4383525118164033, 0.24133400528097154, 1.0462121746493878, 2.321496608251799, 2.829625439538043, 0.6145195083325133, -1.5838310065231718, 2.2073921493731303, 3.1972413281641177, -0.38410496497442803, 0.7003108235397919, 2.14453314894669, 1.322669204996475, 0.6209142351595305, -0.604592625796719, -1.1344102497258628, 0.5019526569723657, 0.851091956411218, 3.47691733524845, 2.0874544847255563, 0.17508429345590037, -0.47390952901825883, -0.5410985750291363, 0.3592092688913851, 0.34667949391768715, 0.38445560686637803, -0.7727713580245053, -0.878452865837315, 0.29594184055614403, -0.9090528908678301, 0.14023232047340198, 2.2275533571438855, 3.5464340526786367, 2.0559284184404345, -2.1251906444127218, 0.07368409708553852, 5.876513217589757, 6.126701273631901, 2.5914998814085415, -1.49779113895136, 0.9145163163562025, 1.1776297052371985, 0.039246050784457406, 0.42251218285290165, -0.06178257662762513, -0.17167377495547173, 1.258946523776109, 1.0422775540084364, -0.8289784533932508, -1.247681207636321, -0.9398476057700106, -0.07060449792788381, -0.8580669429264831, -0.47558280081792637, -0.1383523351957141, -0.7962169130336614, -0.9606829722312408, -0.5475038054496764, 1.0008883839491145, 0.5136277689841457, 2.6590456634661255, 1.678733331002464, 1.0930083359169036, 0.624331891141241, 0.3423829774135719, -0.6625628200780563, -0.19406855927767294, 0.21006969123427283, -0.38287341824500043, -0.5083244855222689, -0.6470210290090143, -2.0415742084919684, -1.4840200661089913, -0.20476087063382756, 0.6419267935234557, -0.06676319590672769, -1.3059309258877512, -0.71311925872579, 0.06674659724391298, -0.8282854407475619, -0.7386761336756833, 0.23158303757793863, 0.05613118034892839, 0.6226594049678327, 0.37830951406337054, -0.8672051245669303, 0.7057737632741693, 0.22892611673567934, 1.5034474712039674, 0.1292654181505648, 1.438612793028389, 0.3033720838376121, -1.8362097374467212, -0.719646711734381, 0.005493844885422867, 0.4766563578863024, -0.9837317928010034, -0.6767320763227077, -1.5541081377992176, -1.7040271381103922, -0.2716353148473976, -0.1641432332776725, -0.22768698979477234, 0.4422717724001092, -0.023025211198600785, 0.3344665833480722, 0.46656669504169734, -0.9186412572399582, -0.18142298507526045, -0.10198400880894898, 0.14879072573443608, 0.016556117593852893, -0.7471761244466806, -0.07271842197425649, -0.9710954824743392, 0.5059919835542661, 0.3015124514210628, 0.8227158442006243, 0.9428482950247288, -0.15121911709195385, -1.1532063710549134, -0.975690049159179, 0.1312161056451867, -0.7399935283167465, -0.8571579118069633, -1.0806046810622922, 0.20772206387336709, 0.20660176028956895, -0.6756206094440006, -0.7967563513526164, 0.2910245000008113, -0.7189507251063171, 0.977179861902372, -0.7814014545402879, -0.8284084917277714, -0.13035669795585214, 0.4912555524578299, -0.2545160149277317, -0.9977786822499337, 0.9743405911861482, -0.7499378053560197, 0.7471733122009518, -0.6330540614689544, 0.6782372366122797, -0.23301372489173433, 0.8330784722890545, -0.014164456510739942, -0.24888516561339394, 0.3025159164429673, 0.9573388651905622, 0.31768130170129383, 0.0034911207098820007, 0.21890442526900822, 0.03387727600585144, -0.6572255606766335, -0.2628393304291965, 0.6823307601076753, -0.4724903604621673, 0.5175217007549406, -0.03410053802647717, -0.5134395287770914, -0.8300642220806846, -0.1606058469379703, 0.7499422145158992, 0.7197121163499585],
			[-0.15860190212170977, 0.8864265148126727, -0.3395786748283087, -0.6954644890299027, 0.20704434155775386, 0.7411464179415934, -0.13411041113128386, -0.6621533378845794, 0.025084919173168352, -0.2956357131343528, 0.1629398593439988, -0.2693971214187201, -0.7730274607225645, 0.4615025479421493, -0.523536537877614, 0.81955729335189, -0.22486741172769076, 0.3597200269423415, 0.45731531801694514, -0.41635170745225825, -0.049061647130382635, 0.6164054851211032, -0.5342565656059377, 0.24777613095827888, 0.9716428150014065, -0.6596807759258465, -0.9034200054100205, 0.9088394227724934, 0.6926923102081788, 0.7261080593450555, -0.912857756497834, -0.14165217240091899, 0.6736389852624627, 0.9708333682629493, 0.8606185357389702, 0.9027460757007363, 0.2691720799707858, 0.7303351280380909, -0.5143949383933645, -0.022388450182610212, 0.5041698975013481, 0.5168272252702497, -0.13500561183954218, 0.8257032085083008, 0.822952850133371, -0.35200469000978213, -0.03276354036193796, -0.004530587857586976, 0.36890427359932954, 0.18724829670241316, -0.8331434302232914, -0.8015004137837325, 0.24266113642219, 0.1951630400606521, 0.18190373548719485, 0.8164169557416465, -0.5637618823734609, 0.1355207693347662, 0.8773182246577242, -0.7659467487608755, 0.4031916541470677, -0.1330350035919019, 0.6515123983855603, -0.060191194951246654, 0.4480571923518883, 1.0759052540725864, 0.10572057664812393, 0.5103373296698724, 0.15286596673936262, 0.0017509273694410936, 1.1436890148478849, 0.9376960420082406, 1.0243897798588353, 0.09870782138477988, -0.8688413617460772, 0.5936415795329625, -0.39053160296645584, 0.1949911537953457, -0.6646996942281824, 0.17151259403080174, 0.45940017729772187, -0.6771714639136754, 0.8030508657312385, 0.45226918764728863, -0.5204259433842897, 0.8541260751266107, 0.5151815580020136, 0.831436580781603, 0.9186320195966885, -0.6081350713590455, -0.44956016763363427, -0.35617804024342464, 1.3699499105102155, 2.0523044819706913, 3.655365092730074, 2.3742161806415485, 2.433669937839004, 1.0399730397671867, 1.3274272117473527, 0.5196424677939486, -1.103354354425503, -2.4518558301524287, -1.3471475276055391, -1.0453421406215022, -0.5835786108200731, -0.4624359316706696, -0.42161141537513724, -0.5974981706742566, 0.874598966904517, 0.024395367024749644, 0.03491315329689571, -0.4272963273453403, 0.5184974813899421, 0.14807727363968626, 0.4279353380431923, 0.36463850771096257, -0.4148919912506972, -0.8354794509066292, -0.28229239172438086, 1.3599109260944773, 0.6795493822739174, 3.2268229634656542, 3.65765003089112, 2.7674118144287245, 1.5395706465038785, 0.2968262075173793, 0.4056499776148989, -1.3415097873088047, -0.6701493674968806, 0.44481545022473834, -1.414642328994257, -1.4358427056662322, 0.697585325149649, -0.7963328533682963, -2.1528229368033207, -0.34422105070802383, 0.4783357503697017, -0.6547672543526453, 0.19128331896800116, -0.9903226732324071, -0.7601610354511474, -0.9540290586428499, 0.9764768381912037, -0.2196953447458079, -0.11293541826047686, -0.8361732491750548, 0.9903465208965898, -1.2077483600617172, -0.1443178719842301, 0.1315859795061081, 0.6670364288772322, -0.36964244952973846, 0.30645815011139055, 0.38626510268341363, 1.4573089929727563, 1.8385594388329909, 0.7195478403645885, 2.6177419252745326, 5.051932774701632, 1.6716899764657533, -0.9447558456432494, -2.5567589597960376, -3.8513919563395644, -3.7877078566177245, -2.886218922886965, -0.4782382516453494, 0.02942801592719574, 0.024129759187574578, -0.7877973934855254, 0.5791276269675225, 0.04912811609399166, -0.19049813509451152, 0.035969227350426604, 1.525256740413361, 1.8374900760625714, -0.07023682706560908, -0.5215782910010661, -0.583376010399517, -2.453180857021326, 0.31026116925584246, -0.10978159684050313, 2.633777231241491, 2.5960901081243004, 5.724909122268551, 2.7687236323932454, 3.175279715489148, 1.9051097818863503, -0.02126503179944034, -3.002921419990292, -5.075637790055165, -7.137017242046702, -7.811913096227867, -5.719747708318129, -2.1382667864128777, -1.8214636505404647, 0.628728898471676, -0.09104902416092964, -0.008010421743445573, 0.1578860372699841, 0.6460297534984956, 0.7923011348317897, 1.4073682185089067, 0.9902075939349546, 0.061937132161224887, 1.4167701956051928, 0.10354741180101211, 0.9411902995997546, -1.5790242918956945, -0.6397320335640366, 1.6634762993012433, 1.482446015053735, 2.476905467770338, 1.722107867452565, -2.6590062689122074, -4.709769839007098, -2.8481214830080726, -7.180236683163666, -2.8089227689596212, -4.315107576638547, -6.121453438113291, -4.40361262389429, -3.0423465862321124, -0.7413902086298277, -0.18771345175506093, 0.8784742402121335, 0.5695386683446872, 0.27865783929546745, 0.4263830582319508, -0.03646867226764524, 2.452294367324667, 2.7352824154785975, 0.8045043602787211, 0.8205365164949009, 4.141362110996558, -0.6063903880043758, -0.5355867655714449, -2.4311249012805964, -3.298532095985603, -0.6890615034145722, 0.9150719946980933, -0.9781031116334502, -3.2242169344908524, -3.470314110136035, -0.6552321387023614, -4.05928047789968, 0.20554732345884247, 1.4600212656129932, -4.123891241338711, -3.133920649742848, -3.0910231014371763, -1.3550845571539947, -0.5441716804174763, 0.181951278790506, 0.02749947662175467, -0.3256306282517897, -0.3549318535058934, 1.2080691219178417, 1.7928474230705533, -0.3465197770023503, 0.44295506028490417, 1.2866758693245948, 1.509727067274016, -1.4826236531876995, -4.691459573666358, -5.1438330181613, -7.840386416149219, -0.9682568729081179, 3.6585646511714542, 6.790680743735906, 7.3458442807711775, 8.43610366702083, 8.250332485871704, 5.483409143319599, 6.343357961644229, 4.696609813030988, 0.35859870999642857, -1.6534961308914276, -1.7632743909799458, -2.099715726397875, 0.11050822975872812, -0.5550406704668585, 0.5127440164746533, 0.8261696063226608, -0.00284890845076759, 1.431123438187627, 1.0278743826636485, -1.290670565224099, -4.106446635698943, -2.724064649700428, -2.523381211881699, -3.993570280875066, -6.462207368252554, -5.9633639016149464, -1.4462895648109555, 1.6881021853048777, 7.061132025133245, 6.780628306092296, 7.964292917191135, 10.538557259620255, 10.921024581166177, 11.619442185525623, 10.197981653980131, 8.512769478304467, 4.164773925055482, 0.3659606208716572, -0.9928884137732868, -0.781404019135602, 0.25487431118070847, 0.3719842322804565, -0.8071230854465958, 0.4259116665089189, 0.295767534855323, 0.8228696051941357, 1.1501909725570856, -4.368213231398527, -5.196440500018729, -4.458217026205782, -4.0392419307099265, -5.303509282309653, -5.179308617380536, -2.522098406431968, 2.25334929131128, 3.150789565473026, 2.1267478022978334, 2.565258032981815, 2.702720912673137, 4.745853799331558, 7.948792411833658, 9.480335624516986, 8.480414646177183, 8.578256113455001, 2.808691360173608, 0.05961334720404988, -0.7608324344995082, -0.8465898079052161, -0.26522788476933645, -0.17502113821405585, -0.3059927381119989, 0.046838928665625446, -0.06767565621579333, -0.08379651965631651, -0.6563907467267396, -4.673602253606784, -7.3354614379789815, -6.2837833988878655, -5.917606984620518, -7.865541542096867, -1.493766148821855, -0.24271113370106093, 3.8507444023444966, 5.618400115617056, 7.320833706463116, 3.6767589624636052, 1.715521079324767, 1.5467727090373147, 3.1451234177680876, 1.4896971376079253, 1.5912572121770547, 2.942267848192567, 1.1856724729001458, 0.9125556359460183, 0.6327900253029926, -0.09334288440015989, -0.7554133287717114, 0.6674589458643356, 0.9652419552903608, 0.4638716182760936, 0.7537127937532045, -0.9170107003490008, -3.331488487818147, -5.053395072677125, -7.635957572620834, -5.626305329646597, -5.854018235204661, -4.407341066941434, 0.11485949595217505, 2.618102407099194, 3.053895156013732, 6.517716107040261, 9.972469856782451, 6.562150652243565, 1.3635439400549187, 1.7819509548422048, 2.930811234958376, -1.0575815692803672, -1.314278535468562, -1.9049250014118697, -0.29105766648372855, -0.9238815106120227, 0.2919437143859648, 0.9247433645645605, 0.8723936430587742, 0.27462045892420966, -0.3057687082855023, 0.08764825836985857, -0.024231534843978088, -1.125386912692466, -2.7486085212569793, -5.28003110047689, -5.596085288173568, -3.340088950243547, -1.3754182409595055, -4.1525321476739565, 2.0652940732705716, 0.31855332970482764, 0.22781035672766495, 2.320283703010712, 9.100432140937752, 7.280139907603758, 4.943151472276622, 1.5817895171335474, 1.4834342323842828, -3.8963985597748225, -5.870103662371072, -5.6654137367780235, -1.6587674184827519, -1.019157578698431, 0.6415257670157334, 0.23900709138917892, 0.40782556307318646, 0.7394595411523264, 0.3898625039340775, -0.42167139159366523, 0.5379158452814691, 0.9111437569478552, 0.16834746692483046, 0.4407296540742826, 1.3756817283252727, 3.4975099713996634, 1.7588986453192188, -6.06348518566443, -3.60963240446148, -2.8307019223989967, 1.085385583594874, 6.063249683591139, 7.001853638739939, 5.195468034225531, 1.3783534794462018, -1.8049821675223494, -1.7668972246754726, -3.4070473261752916, -5.417764629307018, -4.9981842118542, -4.10246440407289, -0.7425185089137559, 1.144960281942714, 0.20761447516848128, 0.49876156583022013, -0.8714900858025154, 0.5529666140834868, 0.7983458308955987, -0.9016308787645607, 0.2648818583976437, -0.13516441149714176, 3.098992694727007, 7.161584089839793, 7.677737786656165, 5.75810281347023, 0.8798632193311647, 1.2501911911591144, 2.2427608989579944, 2.261557245274945, 7.361423333938305, 8.095607168498763, 6.5744570948858545, -0.08349761846235154, -3.214937244824062, -4.639324480248617, -2.296790551876576, -2.3814079577873053, -3.4619265422660113, -2.5533503296242657, 1.2687266954167955, 2.871261398018516, 1.3598839596631542, -0.10959230502220407, -0.4151545467937541, 0.7540037309373022, 0.1495708633635009, -0.3644434682139115, 0.8019943663966141, -0.7166990452845041, 3.161727595441073, 3.6318145996123885, 5.568082475331898, 8.440193776310677, 7.513399247709365, 7.922239091326307, 9.87784595988591, 9.612281987366297, 9.713946643171504, 8.681434781429797, 2.0413776479907653, -2.2010919435987875, -6.07461340603325, -5.508424743713798, -3.321293594390464, -1.4908000963566634, 0.28136838718784, -0.7652568452367462, 2.5763698241492645, 3.7985197936420367, 1.2961454645251802, 0.358302491708638, 0.9202554540248697, 0.319427483476451, -0.98470971007409, 0.8727671543549304, -0.6246596559176124, 0.6513304164647556, 0.3152114766466642, 0.5704320806582439, 3.5476037060475485, 6.948754318666831, 7.938632393558251, 11.670681696616649, 13.533530134377877, 11.82973137830093, 8.940462177146017, 2.2202053632577714, -4.545599613950991, -2.1418738668888415, -5.757877236624579, -6.469705294419968, -3.3476062653967045, -2.905235947272282, -1.263625901602341, -0.964715172571623, 2.480940060704622, 2.7282434113202236, -0.22278042898841097, -0.16355808941339903, 0.5238119394710066, 0.8012379388053046, -0.10888321173511731, 0.7275021211692647, -1.7179321598652086, -1.308858383772293, 0.273969270517733, 0.24764610818398416, 2.5006743579917745, 5.414265400720832, 6.4244635461650414, 8.521717649369993, 9.839730469112808, 9.213286463401003, 5.846781557002717, 1.8952632975066783, -2.9524780918992892, -2.5536821376164536, -3.0145804970590864, -2.8012142277535017, 1.3612076773267725, 0.00947949740094945, -2.453222831236918, 0.898747749385919, 0.7711283126407075, 1.8892539914851418, 1.3582462594159956, 0.729070813044282, 0.6811961977697694, 0.8596424782307016, -0.6442256290396321, -0.9415052915971899, -3.0751777351596266, -3.0440149586538197, -0.7894951280154006, 2.130482689218515, 0.24645209895521145, 2.0811434674932654, 3.526119616962783, -1.5325970820611632, 1.0253775136595222, -1.0632425302142017, -2.3629183135221297, -3.195910009759852, -3.810480840368595, -1.976854430878286, -2.031368667174897, -0.6596981662287622, 2.805718413768399, 1.649897587317248, -2.130835407362917, 1.4979206280766661, -0.3369591276502234, -0.5834963947234403, 0.03293182481068548, 0.3221947638429822, -0.18147023763690884, -0.009028495129615378, 0.0903208754159524, -0.14233028686886337, -1.0634409784718646, -0.17190853524110078, 0.9393717422648483, 2.3323041974492345, -2.599958017031859, -0.5520927927100032, 0.938678322961794, -1.3485888021110461, -4.563476889872344, -9.08508364344488, -10.102933567401198, -8.68379257795311, -3.8737941760009056, -1.9110383791703631, 0.4476882804016939, -0.44106328736154726, -0.5662446290308426, -0.4395602238318357, -1.3467589141854137, 1.1256874592328698, 0.33158781982952323, -0.392529645773654, -0.95802367059111, 0.4913945060062299, 0.6093927488790278, 0.490306807816308, 0.27977828030955104, 0.6744750969582093, -0.9453691919306231, 0.8517204776200832, 3.781985926442019, 3.1891740280952425, 1.5401753664209046, -1.6116509211512375, 0.2734500363119992, -2.3694912714136795, -3.064469774956397, -5.688598384007407, -3.941138073697929, -2.3946616717083327, -1.9303122716373826, -3.3063325543375304, -1.5840072182562153, -2.128366089140534, -0.19480749387679874, 1.5555098736108595, 0.8259144558373229, 0.8997338912069058, -0.15350373546546148, -0.27572333432479856, 0.9688766932149062, -0.7121148308807372, -0.4194091360608567, -0.09650466109386624, -0.46502919862594305, 0.6733384940311192, 0.14970827268769232, -0.9779161976052645, 0.14782551499190108, 0.9409245568780936, 1.6541734907218988, -0.0317555083029727, -4.078799703173272, -2.3654467227464293, -2.3274732454359577, -0.8764820130073184, 1.4209791975476824, 0.04605574368522172, -0.19823170539927937, 0.14724219534773722, 1.5899355616147097, 1.2837108539092004, 1.0484779518774454, 2.2049316756707187, 1.7844319964083073, 0.9235010224209612, 0.7084726201374371, 0.018357331921585472, 0.161802449516648, 0.3790722850057202, 0.883015354361163, 0.08505768643542, 0.34169836374880846, 0.4142045002607399, 0.6126064569450305, -0.39248509162772494, 0.9891407526811911, -2.034181391638429, -0.8874274098286148, -1.1347566096310602, -0.9984717260359947, -1.5541547573951384, -2.481231231325347, -2.8412601162122297, -3.279347663331258, -2.8376039158426534, -3.133242571061025, -1.8569189326241022, 0.16922199442294886, 0.18225135690268698, -0.29086428048033336, -0.7387090275233791, 0.8660316738041919, 1.277321015951086, 1.2152594909431942, 1.0153915327291108, 0.7662885163795788, -0.47831837669634947, 0.9586146719538187, 0.43824982682909397, 0.3775200722512033, -0.2877149430743548, -0.533596355770426, -0.24891969423628374, -0.6889278750838665, -1.032181099428484, -0.9523216269830816, -1.2277320524222637, -2.800267931971587, -3.0352852047506103, -1.7954839904962216, -1.6801968647134464, -2.3025363354061628, -2.6917912580768446, -0.8554610414652704, -0.7095309512369438, 0.5029961264938744, 0.7759451077872025, -0.4964121227420036, -0.8536110006887734, -0.09362894131870779, -0.2961014652275449, 0.09459199173436966, -0.7274396540091167, -0.15552526448349074, 0.46252011300752693, -0.09283837375618642, -0.13178214425124146, 0.771651500812033, -0.9857934599659561, 0.4966569808565544, -0.8430238567947588, -0.5018780989822956, 0.677202716743364, -1.0647859866305762, -0.2025954149408896, -0.3617998721931563, -0.5406972128163599, -0.17836126439326372, 0.32879065337114005, 0.008488691357803304, -0.2680194261858822, 0.36245230239621223, -0.39525697153615136, -0.07231247979789986, -0.3771408461880104, 0.036819979739058574, -0.01344353996776071, -0.9738601449826337, 0.22802134175605016, 0.16277028413279737, -0.026423583274037377, 0.7279732724628136, 0.004439861634411901, -0.31980871158915036, -0.9835815824611394, -0.8792220703437361, -0.6913115578380773, 0.11478749502549368, 0.26955796377645935, 0.7411706325911003, 0.0998432492846466, -0.10680291028476452, -0.6334736789802475, -0.29339057740745117, -0.22872252270267068, -0.18710507491052286, 0.8838433015942696, -0.3643899482308588, -0.08381466082696143, -0.8315588966314027, 0.8596846002651644, -0.24888095666560606, 0.1912989824293878, 0.7120852800916184, -0.258299323112428, -0.3148944802656626, -0.6941780611935338, -0.6137351376028559, 0.8627030777026055, -0.533129955765062, -0.14193398461029627],
